{"learner":{"attributes":{"best_iteration":"64","best_ntree_limit":"65","scikit_learn":"{\"n_estimators\": 65, \"objective\": \"reg:tweedie\", \"max_depth\": 5, \"max_leaves\": null, \"max_bin\": null, \"grow_policy\": null, \"learning_rate\": null, \"verbosity\": null, \"booster\": null, \"tree_method\": null, \"gamma\": null, \"min_child_weight\": null, \"max_delta_step\": null, \"subsample\": null, \"sampling_method\": null, \"colsample_bytree\": 0.75, \"colsample_bylevel\": null, \"colsample_bynode\": null, \"reg_alpha\": 5.5, \"reg_lambda\": null, \"scale_pos_weight\": null, \"base_score\": null, \"missing\": NaN, \"num_parallel_tree\": null, \"random_state\": null, \"n_jobs\": null, \"monotone_constraints\": null, \"interaction_constraints\": null, \"importance_type\": null, \"gpu_id\": null, \"validate_parameters\": null, \"predictor\": null, \"enable_categorical\": false, \"max_cat_to_onehot\": null, \"eval_metric\": null, \"early_stopping_rounds\": null, \"callbacks\": null, \"_estimator_type\": \"regressor\"}"},"feature_names":["incidente_5","incidente_4","incidente_3","incidente_2","incidente_1","day","month","day_of_week","hour","tgt_enc_deleg"],"feature_types":["float","float","float","float","float","int","int","int","int","float"],"gradient_booster":{"model":{"gbtree_model_param":{"num_parallel_tree":"1","num_trees":"65","size_leaf_vector":"0"},"tree_info":[0,0,0,0,0,0,0,0,0,0,0,0,0,0,0,0,0,0,0,0,0,0,0,0,0,0,0,0,0,0,0,0,0,0,0,0,0,0,0,0,0,0,0,0,0,0,0,0,0,0,0,0,0,0,0,0,0,0,0,0,0,0,0,0,0],"trees":[{"base_weights":[9.508044E-1,-3.5115206E-1,1.114271E0,-1.2531317E0,-1.522043E-1,5.623665E-1,1.2978741E0,-1.3213736E0,-6.2854356E-1,-3.9718282E-1,3.635893E-1,3.24567E-1,8.0924135E-1,1.1072508E0,1.4553616E0,-1.3482915E0,-1.0077295E0,-7.2988796E-1,5.091911E-2,-6.5312064E-1,-2.7614644E-1,2.6123866E-1,7.3270917E-1,6.448564E-2,4.634318E-1,4.6724558E-1,9.0592366E-1,7.7274746E-1,1.1740698E0,1.3248391E0,1.5414844E0,-1.3806514E0,-1.1552328E0,-1.0109673E0,-0E0,-7.745296E-1,-3.1977436E-1,-4.6693042E-2,5.11223E-1,-7.1047646E-1,-3.884404E-1,-3.6857644E-1,-1.8183948E-3,5.401364E-2,3.2880574E-1,6.4664453E-1,9.155793E-1,-2.3124242E-2,2.5211486E-1,3.652516E-1,7.1344334E-1,3.1784183E-1,5.3038836E-1,8.3072674E-1,1.0650136E0,6.9965017E-1,9.0091246E-1,1.0664688E0,1.275266E0,1.1289947E0,1.3664831E0,1.4777267E0,1.6260368E0],"categories":[],"categories_nodes":[],"categories_segments":[],"categories_sizes":[],"default_left":[1,1,1,1,1,1,1,1,1,1,1,1,1,1,1,1,1,1,1,1,1,1,1,1,1,1,1,1,1,1,1,0,0,0,0,0,0,0,0,0,0,0,0,0,0,0,0,0,0,0,0,0,0,0,0,0,0,0,0,0,0,0,0],"id":0,"left_children":[1,3,5,7,9,11,13,15,17,19,21,23,25,27,29,31,33,35,37,39,41,43,45,47,49,51,53,55,57,59,61,-1,-1,-1,-1,-1,-1,-1,-1,-1,-1,-1,-1,-1,-1,-1,-1,-1,-1,-1,-1,-1,-1,-1,-1,-1,-1,-1,-1,-1,-1,-1,-1],"loss_changes":[2.5890325E5,2.434195E4,1.095065E5,1.0333945E3,1.40487295E4,1.5832766E4,2.4330625E4,1.7220312E2,1.7072937E2,2.3299893E3,1.3466411E3,4.9608926E3,4.368617E3,8.1893125E3,4.974E3,1.1144922E2,5.7631836E0,3.249231E1,1.6444185E1,3.608916E2,1.2961367E3,3.904403E2,1.129209E2,7.879166E2,2.1928125E3,2.705083E2,1.2230078E3,5.630469E2,3.3156562E3,1.42475E3,1.422625E3,0E0,0E0,0E0,0E0,0E0,0E0,0E0,0E0,0E0,0E0,0E0,0E0,0E0,0E0,0E0,0E0,0E0,0E0,0E0,0E0,0E0,0E0,0E0,0E0,0E0,0E0,0E0,0E0,0E0,0E0,0E0,0E0],"parents":[2147483647,0,0,1,1,2,2,3,3,4,4,5,5,6,6,7,7,8,8,9,9,10,10,11,11,12,12,13,13,14,14,15,15,16,16,17,17,18,18,19,19,20,20,21,21,22,22,23,23,24,24,25,25,26,26,27,27,28,28,29,29,30,30],"right_children":[2,4,6,8,10,12,14,16,18,20,22,24,26,28,30,32,34,36,38,40,42,44,46,48,50,52,54,56,58,60,62,-1,-1,-1,-1,-1,-1,-1,-1,-1,-1,-1,-1,-1,-1,-1,-1,-1,-1,-1,-1,-1,-1,-1,-1,-1,-1,-1,-1,-1,-1,-1,-1],"split_conditions":[6.771257E-1,2.1637192E-1,5E-1,5E-1,5E-1,5E-1,2.5E0,5E-1,2.5E0,3.7433642E-1,2.5E0,1.2069247E0,1.2069247E0,1.2069247E0,1.8321307E0,5.5E0,6.5E0,1.15E1,5E-1,5E-1,5E-1,3.7433642E-1,4.5E0,5E-1,4.5E0,8.720287E-1,2.1028478E0,1.5E0,1.5E0,1.2069247E0,5.5E0,-4.1419542E-1,-3.4656984E-1,-3.032902E-1,-0E0,-2.3235889E-1,-9.593231E-2,-1.4007913E-2,1.5336691E-1,-2.1314295E-1,-1.16532125E-1,-1.10572934E-1,-5.455185E-4,1.6204093E-2,9.864173E-2,1.9399337E-1,2.7467382E-1,-6.937273E-3,7.5634465E-2,1.0957549E-1,2.1403301E-1,9.535255E-2,1.591165E-1,2.4921803E-1,3.195041E-1,2.0989506E-1,2.7027375E-1,3.1994066E-1,3.8257983E-1,3.3869842E-1,4.0994495E-1,4.4331804E-1,4.8781106E-1],"split_indices":[9,9,4,4,4,3,4,3,4,9,4,9,9,9,9,7,2,6,2,3,3,9,4,2,7,9,9,4,3,9,4,0,0,0,0,0,0,0,0,0,0,0,0,0,0,0,0,0,0,0,0,0,0,0,0,0,0,0,0,0,0,0,0],"split_type":[0,0,0,0,0,0,0,0,0,0,0,0,0,0,0,0,0,0,0,0,0,0,0,0,0,0,0,0,0,0,0,0,0,0,0,0,0,0,0,0,0,0,0,0,0,0,0,0,0,0,0,0,0,0,0,0,0,0,0,0,0,0,0],"sum_hessian":[1.2164775E6,1.3569308E5,1.0807844E6,2.4515037E4,1.1117804E5,2.6980225E5,8.109821E5,2.209143E4,2.4236084E3,7.538465E4,3.579339E4,1.3743964E5,1.3236261E5,3.6691275E5,4.440694E5,2.0326137E4,1.765292E3,2.116017E3,3.0759143E2,2.4188002E4,5.1196652E4,2.8036076E4,7.7573145E3,4.7854156E4,8.958548E4,2.9185832E4,1.0317677E5,6.110569E4,3.0580706E5,1.7656244E5,2.6750697E5,1.7378562E4,2.9475745E3,1.7596351E3,5.656854E0,1.8953997E3,2.2061731E2,2.4465894E2,6.2932503E1,1.9861568E4,4.3264326E3,3.827887E4,1.291778E4,6.91409E3,2.1121986E4,5.298351E3,2.4589639E3,3.2602572E4,1.5251586E4,6.4342473E4,2.5243004E4,8.69812E3,2.048771E4,7.008877E4,3.3088E4,3.8943906E4,2.2161787E4,1.4824528E5,1.5756177E5,3.09886E4,1.4557384E5,1.5255475E5,1.1495223E5],"tree_param":{"num_deleted":"0","num_feature":"10","num_nodes":"63","size_leaf_vector":"0"}},{"base_weights":[7.4450594E-1,6.6931657E-3,9.054631E-1,-3.2598454E-1,5.159633E-1,5.260669E-1,1.0756954E0,-5.0633883E-1,2.611993E-1,2.3345806E-1,8.3077925E-1,3.4815753E-1,7.775578E-1,9.012503E-1,1.2066289E0,-6.595281E-1,7.022141E-2,5.5873865E-1,5.7671215E-2,-8.903296E-2,4.338636E-1,6.440275E-1,1.0464573E0,2.4160984E-1,5.986946E-1,6.2715507E-1,9.034759E-1,8.145904E-1,1.0556393E0,1.1103288E0,1.3210537E0,-8.886041E-1,-3.3060986E-1,-4.8683528E-2,3.3576766E-1,4.0403008E-1,8.2144916E-1,-1.1528242E-1,3.1306046E-1,-2.6606798E-1,2.0470855E-1,3.1501207E-1,6.721875E-1,4.355133E-1,7.74141E-1,7.886164E-1,1.1092442E0,3.9850262E-1,1.3832419E-1,6.195733E-1,1.3252904E-1,5.4092366E-1,7.3405546E-1,9.2663425E-1,5.463505E-1,7.0380414E-1,9.217367E-1,9.406798E-1,1.1230443E0,1.0172143E0,1.1921304E0,1.2151805E0,1.3710244E0],"categories":[],"categories_nodes":[],"categories_segments":[],"categories_sizes":[],"default_left":[1,1,1,1,1,1,1,1,1,1,1,1,1,1,1,1,1,1,1,1,1,1,1,1,1,1,1,1,1,1,1,0,0,0,0,0,0,0,0,0,0,0,0,0,0,0,0,0,0,0,0,0,0,0,0,0,0,0,0,0,0,0,0],"id":1,"left_children":[1,3,5,7,9,11,13,15,17,19,21,23,25,27,29,31,33,35,37,39,41,43,45,47,49,51,53,55,57,59,61,-1,-1,-1,-1,-1,-1,-1,-1,-1,-1,-1,-1,-1,-1,-1,-1,-1,-1,-1,-1,-1,-1,-1,-1,-1,-1,-1,-1,-1,-1,-1,-1],"loss_changes":[1.3234838E5,3.381765E4,5.9079875E4,1.2786407E4,7.00876E3,1.2672547E4,1.441175E4,8.161217E3,1.7140638E3,2.689255E3,1.492168E3,4.425996E3,2.2142969E3,3.6118906E3,3.960125E3,5.492092E3,6.1359753E2,4.606914E2,7.4554175E2,8.286131E2,7.210449E2,5.3571875E2,2.6861914E2,1.884418E3,4.7766016E2,4.8594336E2,5.196797E2,2.0495234E3,7.417578E2,1.478875E3,8.56125E2,0E0,0E0,0E0,0E0,0E0,0E0,0E0,0E0,0E0,0E0,0E0,0E0,0E0,0E0,0E0,0E0,0E0,0E0,0E0,0E0,0E0,0E0,0E0,0E0,0E0,0E0,0E0,0E0,0E0,0E0,0E0,0E0],"parents":[2147483647,0,0,1,1,2,2,3,3,4,4,5,5,6,6,7,7,8,8,9,9,10,10,11,11,12,12,13,13,14,14,15,15,16,16,17,17,18,18,19,19,20,20,21,21,22,22,23,23,24,24,25,25,26,26,27,27,28,28,29,29,30,30],"right_children":[2,4,6,8,10,12,14,16,18,20,22,24,26,28,30,32,34,36,38,40,42,44,46,48,50,52,54,56,58,60,62,-1,-1,-1,-1,-1,-1,-1,-1,-1,-1,-1,-1,-1,-1,-1,-1,-1,-1,-1,-1,-1,-1,-1,-1,-1,-1,-1,-1,-1,-1,-1,-1],"split_conditions":[6.5E0,4.5E0,5E-1,1.5E0,1.5E0,5E-1,1.5E0,5.5E0,5E-1,5E-1,2.5E0,5E-1,5E-1,2.5E0,3.5E0,5E-1,5E-1,4.5E0,2.5E0,5E-1,1.5E0,1.5E0,1.5E0,9.5E0,2.25E1,1.5E0,2.25E1,5E-1,5E-1,1.5E0,1.5E0,-2.6658124E-1,-9.918296E-2,-1.4605059E-2,1.007303E-1,1.2120903E-1,2.4643476E-1,-3.4584727E-2,9.3918145E-2,-7.9820395E-2,6.1412565E-2,9.4503626E-2,2.0165627E-1,1.3065399E-1,2.3224232E-1,2.3658493E-1,3.3277327E-1,1.1955079E-1,4.1497257E-2,1.8587199E-1,3.9758712E-2,1.622771E-1,2.2021665E-1,2.7799028E-1,1.6390514E-1,2.1114124E-1,2.7652103E-1,2.8220394E-1,3.369133E-1,3.051643E-1,3.5763913E-1,3.6455417E-1,4.1130733E-1],"split_indices":[8,7,3,3,2,2,2,8,8,0,3,0,0,3,3,2,0,3,2,3,3,0,0,8,8,2,8,0,0,0,0,0,0,0,0,0,0,0,0,0,0,0,0,0,0,0,0,0,0,0,0,0,0,0,0,0,0,0,0,0,0,0,0],"split_type":[0,0,0,0,0,0,0,0,0,0,0,0,0,0,0,0,0,0,0,0,0,0,0,0,0,0,0,0,0,0,0,0,0,0,0,0,0,0,0,0,0,0,0,0,0,0,0,0,0,0,0,0,0,0,0,0,0,0,0,0,0,0,0],"sum_hessian":[1.1144951E6,1.9959686E5,9.1489825E5,1.2072411E5,7.887275E4,2.8337575E5,6.315225E5,9.2363914E4,2.8360195E4,4.1579715E4,3.7293035E4,1.6598155E5,1.17394195E5,2.707917E5,3.607308E5,7.298228E4,1.9381639E4,1.1507914E4,1.6852281E4,1.5925554E4,2.5654162E4,2.0002613E4,1.729042E4,1.16472414E5,4.9509133E4,5.3518617E4,6.387558E4,1.7346573E5,9.7325945E4,1.9591075E5,1.6482006E5,4.3009652E4,2.9972623E4,1.3373448E4,6.0081895E3,7.2574946E3,4.25042E3,1.0035259E4,6.8170225E3,9.948508E3,5.9770464E3,1.7134586E4,8.519576E3,7.703671E3,1.2298942E4,3.405708E3,1.3884713E4,4.6214957E4,7.025746E4,4.7375156E4,2.1339753E3,2.9654932E4,2.3863686E4,5.9969758E4,3.9058225E3,8.5313234E4,8.81525E4,3.6008965E4,6.1316984E4,9.165783E4,1.0425293E5,5.289229E4,1.1192777E5],"tree_param":{"num_deleted":"0","num_feature":"10","num_nodes":"63","size_leaf_vector":"0"}},{"base_weights":[5.5999964E-1,-1.0701088E-2,7.762623E-1,-4.8968127E-1,2.0553769E-1,3.060271E-1,9.031295E-1,-1.0335563E0,-3.1454965E-1,-3.0528456E-1,3.5975492E-1,1.0071938E-1,6.997425E-1,7.8450173E-1,1.1233355E0,-1.2718935E0,-8.074151E-1,-7.8787935E-1,-1.5561E-1,-4.9483943E-1,1.093471E-1,2.5180095E-1,6.014404E-1,-4.860265E-2,4.0010443E-1,5.8486223E-1,9.9926645E-1,6.915771E-1,9.6762675E-1,1.0494171E0,1.3056349E0,-1.3169541E0,-7.030965E-1,-8.657473E-1,-4.411594E-1,-9.051892E-1,-2.0773914E-1,-2.6899216E-1,7.116019E-2,-6.254634E-1,-1.85875E-1,-1.9433406E-3,4.4091582E-1,6.0908664E-2,3.3379313E-1,5.176848E-1,7.672803E-1,-2.6968503E-1,4.024391E-1,2.6776707E-1,7.8489333E-1,5.1484495E-1,8.1573004E-1,9.0718544E-1,1.1422453E0,6.1133176E-1,8.1118274E-1,9.007735E-1,1.1168487E0,9.9736434E-1,1.1559402E0,1.2591827E0,1.4169346E0],"categories":[],"categories_nodes":[],"categories_segments":[],"categories_sizes":[],"default_left":[1,1,1,1,1,1,1,1,1,1,1,1,1,1,1,1,1,1,1,1,1,1,1,1,1,1,1,1,1,1,1,0,0,0,0,0,0,0,0,0,0,0,0,0,0,0,0,0,0,0,0,0,0,0,0,0,0,0,0,0,0,0,0],"id":2,"left_children":[1,3,5,7,9,11,13,15,17,19,21,23,25,27,29,31,33,35,37,39,41,43,45,47,49,51,53,55,57,59,61,-1,-1,-1,-1,-1,-1,-1,-1,-1,-1,-1,-1,-1,-1,-1,-1,-1,-1,-1,-1,-1,-1,-1,-1,-1,-1,-1,-1,-1,-1,-1,-1],"loss_changes":[1.3015166E5,3.001504E4,4.561447E4,8.578025E3,1.57274375E4,1.3130247E4,1.57204375E4,1.1704629E3,5.1249004E3,3.640104E3,3.9962637E3,4.776894E3,1.9067168E3,6.650703E3,2.826625E3,2.614922E2,2.3334668E2,1.1597217E3,1.3139607E3,1.2777715E3,5.379706E2,1.6572188E3,6.499824E2,7.1046855E3,1.8046357E3,6.430908E2,1.9072754E2,2.4839688E3,1.3020625E3,8.1890625E2,2.978203E2,0E0,0E0,0E0,0E0,0E0,0E0,0E0,0E0,0E0,0E0,0E0,0E0,0E0,0E0,0E0,0E0,0E0,0E0,0E0,0E0,0E0,0E0,0E0,0E0,0E0,0E0,0E0,0E0,0E0,0E0,0E0,0E0],"parents":[2147483647,0,0,1,1,2,2,3,3,4,4,5,5,6,6,7,7,8,8,9,9,10,10,11,11,12,12,13,13,14,14,15,15,16,16,17,17,18,18,19,19,20,20,21,21,22,22,23,23,24,24,25,25,26,26,27,27,28,28,29,29,30,30],"right_children":[2,4,6,8,10,12,14,16,18,20,22,24,26,28,30,32,34,36,38,40,42,44,46,48,50,52,54,56,58,60,62,-1,-1,-1,-1,-1,-1,-1,-1,-1,-1,-1,-1,-1,-1,-1,-1,-1,-1,-1,-1,-1,-1,-1,-1,-1,-1,-1,-1,-1,-1,-1,-1],"split_conditions":[1.2069247E0,4.848851E-1,7.5E0,2.1637192E-1,7.5E0,1.5E0,3.5E0,1.25E1,7.5E0,5E-1,1.5E0,5.5E0,3.0451903E0,2.1028478E0,3.0451903E0,5E-1,5E-1,5E-1,5E-1,4.5E0,2.5E0,1.25E1,3.5E0,4.5E0,2.355929E0,4.5E0,4.5E0,1.5E0,3.0451903E0,6.5E0,8.5E0,-3.9508626E-1,-2.1092896E-1,-2.597242E-1,-1.3234782E-1,-2.7155676E-1,-6.2321745E-2,-8.069765E-2,2.1348057E-2,-1.8763904E-1,-5.5762503E-2,-5.830022E-4,1.3227475E-1,1.82726E-2,1.0013794E-1,1.5530545E-1,2.301841E-1,-8.090551E-2,1.20731734E-1,8.0330126E-2,2.3546802E-1,1.5445349E-1,2.4471901E-1,2.7215564E-1,3.426736E-1,1.8339953E-1,2.4335483E-1,2.7023208E-1,3.3505464E-1,2.9920933E-1,3.4678206E-1,3.7775484E-1,4.250804E-1],"split_indices":[9,9,8,9,8,4,4,8,8,4,4,8,9,9,9,4,4,4,4,7,4,8,4,7,9,4,4,4,9,4,4,0,0,0,0,0,0,0,0,0,0,0,0,0,0,0,0,0,0,0,0,0,0,0,0,0,0,0,0,0,0,0,0],"split_type":[0,0,0,0,0,0,0,0,0,0,0,0,0,0,0,0,0,0,0,0,0,0,0,0,0,0,0,0,0,0,0,0,0,0,0,0,0,0,0,0,0,0,0,0,0,0,0,0,0,0,0,0,0,0,0,0,0,0,0,0,0,0,0],"sum_hessian":[1.0544971E6,2.8977588E5,7.6472125E5,9.013852E4,1.9963736E5,1.6249144E5,6.022298E5,2.1946592E4,6.819193E4,4.6285773E4,1.5335158E5,1.0680952E5,5.568191E4,3.9140453E5,2.1082527E5,1.0671072E4,1.127552E4,1.7132371E4,5.105956E4,3.1773246E4,1.4512527E4,1.0602021E5,4.7331375E4,7.1253445E4,3.555608E4,4.0261293E4,1.5420616E4,2.5967186E5,1.3173267E5,1.500289E5,6.0796367E4,9.877578E3,7.934946E2,9.712299E3,1.5632208E3,1.4242384E4,2.889986E3,3.4056047E4,1.7003514E4,2.2318574E4,9.454672E3,1.0853856E4,3.658671E3,3.1876021E4,7.414419E4,3.1473379E4,1.5857997E4,4.782444E4,2.3429006E4,2.6468848E4,9.08723E3,3.0913074E4,9.348221E3,9.407697E3,6.0129194E3,1.5543812E5,1.0423373E5,9.100518E4,4.072749E4,1.0082328E5,4.9205617E4,4.2937605E4,1.7858764E4],"tree_param":{"num_deleted":"0","num_feature":"10","num_nodes":"63","size_leaf_vector":"0"}},{"base_weights":[4.1317338E-1,-1.6265242E-1,5.3509516E-1,-7.957407E-1,-8.047683E-2,4.146541E-1,7.5524765E-1,-8.1998634E-1,-5.74213E-1,-1.7416115E-1,1.2387357E-1,3.1737486E-1,5.478973E-1,6.5722436E-1,9.029153E-1,-8.6914414E-1,-7.450059E-1,-5.977182E-1,-1.8170064E-3,-3.148862E-1,-1.16437465E-1,7.208483E-2,2.8991818E-1,2.2716089E-1,3.72535E-1,4.2624086E-1,6.185675E-1,5.371096E-1,7.3943496E-1,8.337203E-1,1.0132289E0,-6.601189E-1,-8.845993E-1,-6.412652E-1,-7.601064E-1,-6.1397475E-1,-0E0,1.6643596E-1,-4.4518808E-1,-3.893407E-1,-2.0838648E-1,-1.4163078E-1,4.608081E-2,2.1608291E-2,1.7771089E-1,2.4473725E-1,3.915904E-1,1.7938887E-1,3.0009928E-1,3.1467727E-1,4.5519727E-1,3.7763715E-1,5.0822675E-1,5.643774E-1,6.875722E-1,4.987082E-1,6.4805186E-1,6.968445E-1,8.1553334E-1,7.624961E-1,8.822339E-1,9.7349125E-1,1.0912408E0],"categories":[],"categories_nodes":[],"categories_segments":[],"categories_sizes":[],"default_left":[1,1,1,1,1,1,1,1,1,1,1,1,1,1,1,1,1,1,1,1,1,1,1,1,1,1,1,1,1,1,1,0,0,0,0,0,0,0,0,0,0,0,0,0,0,0,0,0,0,0,0,0,0,0,0,0,0,0,0,0,0,0,0],"id":3,"left_children":[1,3,5,7,9,11,13,15,17,19,21,23,25,27,29,31,33,35,37,39,41,43,45,47,49,51,53,55,57,59,61,-1,-1,-1,-1,-1,-1,-1,-1,-1,-1,-1,-1,-1,-1,-1,-1,-1,-1,-1,-1,-1,-1,-1,-1,-1,-1,-1,-1,-1,-1,-1,-1],"loss_changes":[7.115061E4,9.207369E3,2.2169516E4,1.0108887E2,3.0010046E3,7.0024844E3,4.271547E3,5.7945312E1,2.403894E1,8.707461E2,4.2151764E2,1.5517188E3,1.9551875E3,1.7480234E3,8.894375E2,2.6475586E1,3.2409668E0,1.56427E1,8.349422E0,2.4432666E2,3.1273962E2,1.99205E2,5.0075684E1,4.1061963E2,9.2293945E2,3.2906934E2,5.321797E2,3.012422E2,3.3307422E2,2.4089844E2,1.284336E2,0E0,0E0,0E0,0E0,0E0,0E0,0E0,0E0,0E0,0E0,0E0,0E0,0E0,0E0,0E0,0E0,0E0,0E0,0E0,0E0,0E0,0E0,0E0,0E0,0E0,0E0,0E0,0E0,0E0,0E0,0E0,0E0],"parents":[2147483647,0,0,1,1,2,2,3,3,4,4,5,5,6,6,7,7,8,8,9,9,10,10,11,11,12,12,13,13,14,14,15,15,16,16,17,17,18,18,19,19,20,20,21,21,22,22,23,23,24,24,25,25,26,26,27,27,28,28,29,29,30,30],"right_children":[2,4,6,8,10,12,14,16,18,20,22,24,26,28,30,32,34,36,38,40,42,44,46,48,50,52,54,56,58,60,62,-1,-1,-1,-1,-1,-1,-1,-1,-1,-1,-1,-1,-1,-1,-1,-1,-1,-1,-1,-1,-1,-1,-1,-1,-1,-1,-1,-1,-1,-1,-1,-1],"split_conditions":[8.720287E-1,2.1637192E-1,2.1028478E0,5E-1,6.771257E-1,1.5E0,3.0451903E0,7.5E0,1.5E0,3.7433642E-1,1.5E0,1.4607098E0,1.5811915E0,1.5E0,4.5E0,2.5E0,4.5E0,1.5E0,1.55E1,7.5E0,1.5E0,8.5E0,1.5E0,7.5E0,5E-1,8.5E0,2.5E0,2.5E0,4.5E0,1.5E0,8.5E0,-1.9803567E-1,-2.6537982E-1,-1.9237958E-1,-2.2803192E-1,-1.8419243E-1,-0E0,4.993079E-2,-1.3355643E-1,-1.16802216E-1,-6.2515944E-2,-4.2489238E-2,1.3824243E-2,6.4824875E-3,5.331327E-2,7.342118E-2,1.1747712E-1,5.381666E-2,9.002979E-2,9.4403185E-2,1.3655919E-1,1.1329115E-1,1.5246803E-1,1.6931324E-1,2.0627166E-1,1.4961246E-1,1.9441557E-1,2.0905337E-1,2.4466E-1,2.2874884E-1,2.646702E-1,2.9204738E-1,3.2737225E-1],"split_indices":[9,9,9,3,9,3,9,6,1,9,3,9,9,3,3,5,5,0,5,6,3,6,1,6,3,6,2,2,3,3,3,0,0,0,0,0,0,0,0,0,0,0,0,0,0,0,0,0,0,0,0,0,0,0,0,0,0,0,0,0,0,0,0],"split_type":[0,0,0,0,0,0,0,0,0,0,0,0,0,0,0,0,0,0,0,0,0,0,0,0,0,0,0,0,0,0,0,0,0,0,0,0,0,0,0,0,0,0,0,0,0,0,0,0,0,0,0,0,0,0,0,0,0,0,0,0,0,0,0],"sum_hessian":[1.0134279E6,1.770746E5,8.3635325E5,2.0335146E4,1.5673944E5,5.406191E5,2.9573412E5,1.8304264E4,2.0308833E3,1.0748848E5,4.925097E4,3.125066E5,2.2811258E5,1.777708E5,1.17963336E5,1.1005212E4,7.299052E3,1.9415035E3,8.9379715E1,3.123665E4,7.625182E4,3.756815E4,1.168282E4,1.1861592E5,1.9389066E5,8.385087E4,1.442617E5,7.226362E4,1.0550717E5,7.252802E4,4.5435312E4,7.8520386E2,1.0220008E4,9.7925244E2,6.3197993E3,1.881496E3,6.000754E1,5.625239E1,3.312732E1,1.835222E4,1.2884431E4,6.604726E4,1.0204565E4,2.5456354E4,1.2111795E4,8.128288E3,3.554532E3,7.172047E4,4.6895453E4,1.1410008E5,7.979058E4,5.2688332E4,3.1162537E4,8.085461E4,6.3407098E4,5.372306E4,1.8540559E4,6.769972E4,3.780746E4,2.9438555E4,4.308947E4,3.0157633E4,1.5277681E4],"tree_param":{"num_deleted":"0","num_feature":"10","num_nodes":"63","size_leaf_vector":"0"}},{"base_weights":[2.9676992E-1,7.903406E-2,5.484934E-1,-2.729182E-1,2.0060468E-1,4.622581E-1,7.1280044E-1,-4.6840176E-1,-5.1916882E-2,-8.8964395E-2,3.180811E-1,2.1588674E-1,4.983805E-1,5.6894124E-1,7.7015835E-1,-7.6299113E-1,-3.1249985E-1,-3.356402E-1,4.12134E-2,-5.124084E-1,-2.7473072E-2,3.616139E-1,8.0761E-2,6.6572465E-2,3.4836268E-1,3.742884E-1,5.780155E-1,5.1175314E-1,6.939978E-1,7.180759E-1,9.058563E-1,-8.475999E-1,-3.807519E-1,-4.0449727E-1,3.8209792E-2,-6.2936825E-1,-2.2120136E-1,-4.062716E-2,2.6992676E-1,-6.7105156E-1,-3.2043546E-1,-2.1252249E-1,8.87581E-2,3.816973E-1,-5.7601668E-2,-2.3822823E-1,1.8013868E-1,2.1814041E-1,-1.6467497E-2,4.7008535E-1,2.712894E-1,2.636967E-1,4.1990244E-1,5.947182E-1,2.4167539E-1,4.440325E-1,5.5968004E-1,6.3179487E-1,7.507276E-1,7.4136823E-1,4.202503E-1,8.4500015E-1,1.0008161E0],"categories":[],"categories_nodes":[],"categories_segments":[],"categories_sizes":[],"default_left":[1,1,1,1,1,1,1,1,1,1,1,1,1,1,1,1,1,1,1,1,1,1,1,1,1,1,1,1,1,1,1,0,0,0,0,0,0,0,0,0,0,0,0,0,0,0,0,0,0,0,0,0,0,0,0,0,0,0,0,0,0,0,0],"id":4,"left_children":[1,3,5,7,9,11,13,15,17,19,21,23,25,27,29,31,33,35,37,39,41,43,45,47,49,51,53,55,57,59,61,-1,-1,-1,-1,-1,-1,-1,-1,-1,-1,-1,-1,-1,-1,-1,-1,-1,-1,-1,-1,-1,-1,-1,-1,-1,-1,-1,-1,-1,-1,-1,-1],"loss_changes":[5.448565E4,2.2808584E4,6.526297E3,5.909323E3,1.3480098E4,2.6872188E3,1.3015156E3,3.328332E3,1.6992456E3,2.9742842E3,2.9097969E3,7.629956E2,2.6006055E3,3.1672266E2,7.9197656E2,8.051035E2,1.5343228E3,5.293677E2,9.064043E2,4.3555493E2,2.1484534E3,2.0070762E3,1.385486E3,2.303023E2,1.8793848E2,5.1629004E2,8.974922E2,9.5148926E1,4.192578E1,5.6208984E2,1.705957E2,0E0,0E0,0E0,0E0,0E0,0E0,0E0,0E0,0E0,0E0,0E0,0E0,0E0,0E0,0E0,0E0,0E0,0E0,0E0,0E0,0E0,0E0,0E0,0E0,0E0,0E0,0E0,0E0,0E0,0E0,0E0,0E0],"parents":[2147483647,0,0,1,1,2,2,3,3,4,4,5,5,6,6,7,7,8,8,9,9,10,10,11,11,12,12,13,13,14,14,15,15,16,16,17,17,18,18,19,19,20,20,21,21,22,22,23,23,24,24,25,25,26,26,27,27,28,28,29,29,30,30],"right_children":[2,4,6,8,10,12,14,16,18,20,22,24,26,28,30,32,34,36,38,40,42,44,46,48,50,52,54,56,58,60,62,-1,-1,-1,-1,-1,-1,-1,-1,-1,-1,-1,-1,-1,-1,-1,-1,-1,-1,-1,-1,-1,-1,-1,-1,-1,-1,-1,-1,-1,-1,-1,-1],"split_conditions":[1.5E0,6.5E0,4.5E0,3.5E0,8.720287E-1,6.5E0,1.35E1,1.2069247E0,8.720287E-1,2.1637192E-1,5.5E0,4.5E0,1.6849091E0,3.0451903E0,3.0451903E0,5.5E0,5.5E0,4.5E0,2.1028478E0,1.65E1,1.35E1,2.25E1,1.05E1,5E-1,1.5E0,1.35E1,2.25E1,1.74002E0,6.5E0,2.25E1,8.5E0,-2.5428E-1,-1.14225574E-1,-1.21349186E-1,1.1462938E-2,-1.8881048E-1,-6.6360414E-2,-1.2188149E-2,8.097803E-2,-2.0131548E-1,-9.613065E-2,-6.375675E-2,2.6627433E-2,1.14509195E-1,-1.72805E-2,-7.146847E-2,5.4041605E-2,6.544212E-2,-4.940249E-3,1.4102562E-1,8.138683E-2,7.910901E-2,1.2597074E-1,1.7841548E-1,7.250262E-2,1.3320975E-1,1.6790402E-1,1.8953846E-1,2.2521828E-1,2.2241049E-1,1.2607509E-1,2.5350004E-1,3.0024484E-1],"split_indices":[4,8,4,7,9,8,8,9,9,9,7,7,9,9,9,8,8,7,9,8,8,8,8,8,8,8,8,9,4,8,4,0,0,0,0,0,0,0,0,0,0,0,0,0,0,0,0,0,0,0,0,0,0,0,0,0,0,0,0,0,0,0,0],"split_type":[0,0,0,0,0,0,0,0,0,0,0,0,0,0,0,0,0,0,0,0,0,0,0,0,0,0,0,0,0,0,0,0,0,0,0,0,0,0,0,0,0,0,0,0,0,0,0,0,0,0,0,0,0,0,0,0,0,0,0,0,0,0,0],"sum_hessian":[9.941589E5,5.330791E5,4.6107975E5,1.3684895E5,3.9623016E5,3.024031E5,1.5867666E5,7.2603E4,6.424596E4,1.143416E5,2.8188856E5,3.8688566E4,2.6371453E5,4.526196E4,1.134147E5,2.5112227E4,4.749077E4,1.5890792E4,4.8355168E4,1.4486604E4,9.985499E4,2.3817522E5,4.3713344E4,1.8208594E4,2.0479975E4,1.0311274E5,1.6060178E5,3.1092498E4,1.4169461E4,8.199203E4,3.1422674E4,2.0548258E4,4.56397E3,3.763418E4,9.856591E3,4.440607E3,1.1450186E4,3.559498E4,1.27601875E4,7.9148E3,6.571804E3,3.854104E4,6.1313957E4,2.2729919E5,1.0876037E4,1.0370064E4,3.334328E4,6.467837E3,1.1740756E4,7.910453E3,1.25695205E4,3.0147404E4,7.2965336E4,1.5298728E5,7.6145083E3,1.2937234E4,1.8155264E4,6.8107383E3,7.358722E3,7.602621E4,5.9658228E3,1.9191426E4,1.2231248E4],"tree_param":{"num_deleted":"0","num_feature":"10","num_nodes":"63","size_leaf_vector":"0"}},{"base_weights":[2.1177323E-1,-3.3402655E-2,3.3916894E-1,-3.291408E-1,6.030685E-2,2.6401323E-1,4.8481593E-1,-4.6253026E-1,-2.3439612E-2,-1.6491911E-1,1.480566E-1,1.608893E-1,3.289412E-1,4.3804663E-1,6.2897575E-1,-1.1680828E-1,-6.1647266E-1,-6.0735977E-1,5.065726E-3,-3.2678238E-1,-6.891793E-2,6.9220446E-2,2.2208078E-1,6.2027622E-2,2.3194256E-1,1.2604702E-1,3.690921E-1,3.499345E-1,4.8624024E-1,5.923977E-1,7.695216E-1,-5.446948E-1,-3.2860063E-2,-7.457923E-1,-3.0800048E-1,-3.5956106E-1,-8.8979346E-1,1.6546008E-1,-6.1987244E-2,-5.108499E-1,-1.8884082E-1,-3.6196753E-2,-4.6050596E-1,1.4671488E-1,-1.14271596E-1,2.7077487E-1,-2.2196628E-2,-7.1673654E-2,9.159242E-2,2.5878942E-1,-8.164171E-2,-0E0,2.0929153E-1,4.123913E-1,2.404417E-1,2.5317693E-1,3.943348E-1,3.902636E-1,5.284948E-1,4.7937533E-1,6.296574E-1,6.732892E-1,8.3213496E-1],"categories":[],"categories_nodes":[],"categories_segments":[],"categories_sizes":[],"default_left":[1,1,1,1,1,1,1,1,1,1,1,1,1,1,1,1,1,1,1,1,1,1,1,1,1,1,1,1,1,1,1,0,0,0,0,0,0,0,0,0,0,0,0,0,0,0,0,0,0,0,0,0,0,0,0,0,0,0,0,0,0,0,0],"id":5,"left_children":[1,3,5,7,9,11,13,15,17,19,21,23,25,27,29,31,33,35,37,39,41,43,45,47,49,51,53,55,57,59,61,-1,-1,-1,-1,-1,-1,-1,-1,-1,-1,-1,-1,-1,-1,-1,-1,-1,-1,-1,-1,-1,-1,-1,-1,-1,-1,-1,-1,-1,-1,-1,-1],"loss_changes":[3.0609492E4,9.287263E3,7.0547188E3,3.285505E3,5.028294E3,2.8456035E3,1.4736055E3,2.983127E3,4.112834E2,1.1060012E3,1.0669744E3,1.1531362E3,2.123543E3,6.9905664E2,2.6827734E2,6.184054E2,1.5427451E3,7.3280304E1,2.5182867E2,6.696477E2,5.7114014E2,1.2616244E3,1.1242593E3,2.719844E2,8.059614E2,4.5375354E2,1.2099512E3,2.4828711E2,4.2907617E2,1.7328906E2,5.7810547E1,0E0,0E0,0E0,0E0,0E0,0E0,0E0,0E0,0E0,0E0,0E0,0E0,0E0,0E0,0E0,0E0,0E0,0E0,0E0,0E0,0E0,0E0,0E0,0E0,0E0,0E0,0E0,0E0,0E0,0E0,0E0,0E0],"parents":[2147483647,0,0,1,1,2,2,3,3,4,4,5,5,6,6,7,7,8,8,9,9,10,10,11,11,12,12,13,13,14,14,15,15,16,16,17,17,18,18,19,19,20,20,21,21,22,22,23,23,24,24,25,25,26,26,27,27,28,28,29,29,30,30],"right_children":[2,4,6,8,10,12,14,16,18,20,22,24,26,28,30,32,34,36,38,40,42,44,46,48,50,52,54,56,58,60,62,-1,-1,-1,-1,-1,-1,-1,-1,-1,-1,-1,-1,-1,-1,-1,-1,-1,-1,-1,-1,-1,-1,-1,-1,-1,-1,-1,-1,-1,-1,-1,-1],"split_conditions":[5E-1,5.5E0,3.5E0,4.5E0,6.771257E-1,1.5811915E0,7.5E0,1.5E0,2.1637192E-1,1.25E1,1.25E1,1.35E1,6.5E0,1.74002E0,1.25E1,4.848851E-1,4.5E0,2.5E0,1.5E0,3.7433642E-1,2.25E1,4.5E0,2.15E1,6.771257E-1,2.25E1,3.5E0,4.5E0,1.35E1,1.25E1,1.35E1,1.75E1,-1.6340844E-1,-9.85802E-3,-2.237377E-1,-9.240015E-2,-1.0786832E-1,-2.6693806E-1,4.9638025E-2,-1.8596174E-2,-1.5325497E-1,-5.6652248E-2,-1.0859027E-2,-1.381518E-1,4.4014465E-2,-3.428148E-2,8.1232466E-2,-6.6589885E-3,-2.1502096E-2,2.7477728E-2,7.763683E-2,-2.4492515E-2,-0E0,6.2787466E-2,1.237174E-1,7.213251E-2,7.595308E-2,1.18300445E-1,1.1707908E-1,1.5854844E-1,1.4381261E-1,1.8889722E-1,2.0198676E-1,2.496405E-1],"split_indices":[4,8,4,7,9,9,4,8,9,8,8,8,8,9,4,9,8,8,8,9,8,7,8,9,8,7,7,8,8,8,8,0,0,0,0,0,0,0,0,0,0,0,0,0,0,0,0,0,0,0,0,0,0,0,0,0,0,0,0,0,0,0,0],"split_type":[0,0,0,0,0,0,0,0,0,0,0,0,0,0,0,0,0,0,0,0,0,0,0,0,0,0,0,0,0,0,0,0,0,0,0,0,0,0,0,0,0,0,0,0,0,0,0,0,0,0,0,0,0,0,0,0,0,0,0,0,0,0,0],"sum_hessian":[9.799391E5,3.3506212E5,6.44877E5,8.0636695E4,2.5442544E5,4.2540378E5,2.1947322E5,5.6127535E4,2.4509156E4,7.131605E4,1.8310939E5,1.6439167E5,2.6101211E5,1.6574372E5,5.37295E4,1.730397E4,3.8823566E4,1.1488138E3,2.3360342E4,2.6528256E4,4.478779E4,8.870952E4,9.4399875E4,6.877676E4,9.561491E4,4.314236E4,2.1786975E5,5.8645242E4,1.0709847E5,4.266895E4,1.1060551E4,2.8264531E3,1.4477518E4,2.734188E4,1.1481686E4,6.23511E2,5.253029E2,6.9105312E3,1.644981E4,1.1345879E4,1.5182377E4,4.134789E4,3.4399004E3,6.2390316E4,2.6319209E4,7.872858E4,1.5671295E4,1.2420395E4,5.6356363E4,8.809091E4,7.524001E3,1.7135777E4,2.600658E4,1.6297362E5,5.4896125E4,1.8487559E4,4.0157684E4,3.278079E4,7.431768E4,1.06190205E4,3.204993E4,4.399072E3,6.6614785E3],"tree_param":{"num_deleted":"0","num_feature":"10","num_nodes":"63","size_leaf_vector":"0"}},{"base_weights":[1.49765E-1,-6.732785E-2,2.0100197E-1,-2.0985107E-1,5.778906E-2,1.5170899E-1,3.1857428E-1,1.1432238E-1,-2.9003707E-1,2.1317507E-1,-2.1343712E-2,1.6341537E-1,-1.13073714E-1,3.3698764E-1,8.677626E-2,6.3515484E-2,2.3912342E-1,-3.998397E-1,-1.1507085E-1,1.5896574E-1,3.7920776E-1,-1.1733268E-1,8.74285E-2,9.88439E-2,2.152579E-1,-2.505035E-1,4.3356232E-2,2.0603836E-1,3.774421E-1,-5.9997875E-2,2.5219607E-1,-1.2549937E-1,8.110793E-2,3.5276967E-1,1.6909885E-1,-1.6275306E-1,-5.091778E-1,-1.8574126E-1,2.3176346E-2,1.2558454E-1,2.9376328E-1,4.519192E-1,2.8206664E-1,-1.894982E-1,-2.2375112E-2,-5.13792E-2,1.2434444E-1,1.5683801E-1,-6.628656E-2,1.6637231E-1,2.9664847E-1,-3.898539E-1,-1.7764674E-1,1.6494347E-1,-2.0080674E-1,2.4959923E-1,4.9557883E-2,3.3782735E-1,4.5155576E-1,-2.1687356E-1,-1.5820304E-2,3.30588E-1,-5.3203084E-2],"categories":[],"categories_nodes":[],"categories_segments":[],"categories_sizes":[],"default_left":[1,1,1,1,1,1,1,1,1,1,1,1,1,1,1,1,1,1,1,1,1,1,1,1,1,1,1,1,1,1,1,0,0,0,0,0,0,0,0,0,0,0,0,0,0,0,0,0,0,0,0,0,0,0,0,0,0,0,0,0,0,0,0],"id":6,"left_children":[1,3,5,7,9,11,13,15,17,19,21,23,25,27,29,31,33,35,37,39,41,43,45,47,49,51,53,55,57,59,61,-1,-1,-1,-1,-1,-1,-1,-1,-1,-1,-1,-1,-1,-1,-1,-1,-1,-1,-1,-1,-1,-1,-1,-1,-1,-1,-1,-1,-1,-1,-1,-1],"loss_changes":[1.0813359E4,3.310418E3,4.555422E3,2.2568713E3,1.2160862E3,1.7180781E3,9.891289E2,1.0736006E2,1.3340322E3,2.9729016E2,6.83522E2,1.7749385E3,5.051658E2,1.1366289E3,4.166963E2,4.051343E1,3.6411835E1,1.1040562E3,2.6325052E2,1.1095947E2,5.3661377E1,2.3726688E2,1.574914E2,2.2644568E3,1.1685312E3,1.2370813E2,3.2480615E2,3.4475903E2,4.7806836E2,6.1461674E1,1.9464581E2,0E0,0E0,0E0,0E0,0E0,0E0,0E0,0E0,0E0,0E0,0E0,0E0,0E0,0E0,0E0,0E0,0E0,0E0,0E0,0E0,0E0,0E0,0E0,0E0,0E0,0E0,0E0,0E0,0E0,0E0,0E0,0E0],"parents":[2147483647,0,0,1,1,2,2,3,3,4,4,5,5,6,6,7,7,8,8,9,9,10,10,11,11,12,12,13,13,14,14,15,15,16,16,17,17,18,18,19,19,20,20,21,21,22,22,23,23,24,24,25,25,26,26,27,27,28,28,29,29,30,30],"right_children":[2,4,6,8,10,12,14,16,18,20,22,24,26,28,30,32,34,36,38,40,42,44,46,48,50,52,54,56,58,60,62,-1,-1,-1,-1,-1,-1,-1,-1,-1,-1,-1,-1,-1,-1,-1,-1,-1,-1,-1,-1,-1,-1,-1,-1,-1,-1,-1,-1,-1,-1,-1,-1],"split_conditions":[6.5E0,3.5E0,2.5E0,5E-1,1.5E0,2.25E1,2.25E1,3.5E0,4.5E0,4.5E0,1.5E0,1.35E1,3.5E0,1.35E1,3.5E0,1.5E0,1.5E0,1.5E0,8.5E0,3.5E0,5E-1,5E-1,4.5E0,4.5E0,1.5E0,5E-1,5.5E0,4.5E0,3.5E0,5E-1,5.5E0,-3.764981E-2,2.433238E-2,1.0583091E-1,5.072966E-2,-4.882592E-2,-1.5275335E-1,-5.5722382E-2,6.952904E-3,3.7675366E-2,8.8128984E-2,1.3557577E-1,8.462E-2,-5.684946E-2,-6.712534E-3,-1.541376E-2,3.7303332E-2,4.7051407E-2,-1.9885968E-2,4.9911696E-2,8.899455E-2,-1.16956174E-1,-5.3294025E-2,4.9483042E-2,-6.0242023E-2,7.487977E-2,1.4867365E-2,1.01348214E-1,1.3546674E-1,-6.506207E-2,-4.7460916E-3,9.917641E-2,-1.5960926E-2],"split_indices":[8,7,2,8,8,8,8,0,8,2,0,8,7,8,7,6,3,8,6,3,8,2,7,7,0,0,7,7,0,7,7,0,0,0,0,0,0,0,0,0,0,0,0,0,0,0,0,0,0,0,0,0,0,0,0,0,0,0,0,0,0,0,0],"split_type":[0,0,0,0,0,0,0,0,0,0,0,0,0,0,0,0,0,0,0,0,0,0,0,0,0,0,0,0,0,0,0,0,0,0,0,0,0,0,0,0,0,0,0,0,0,0,0,0,0,0,0,0,0,0,0,0,0,0,0,0,0,0,0],"sum_hessian":[9.7207806E5,1.8559555E5,7.864825E5,8.678278E4,9.881276E4,5.5418556E5,2.3229695E5,1.7195662E4,6.958712E4,3.336489E4,6.544787E4,5.3074194E5,2.3443623E4,2.1517953E5,1.7117422E4,1.2253005E4,4.942657E3,4.2735254E4,2.6851865E4,2.517906E4,8.18583E3,3.479371E4,3.0654162E4,2.364033E5,2.9433862E5,1.2498107E4,1.0945515E4,5.0819867E4,1.6435967E5,9.052597E3,8.0648237E3,1.0161903E3,1.1236814E4,1.8529056E3,3.0897517E3,1.3504706E4,2.9230549E4,1.7794803E4,9.0570625E3,2.0215613E4,4.963448E3,4.647124E3,3.5387063E3,1.9735941E4,1.5057768E4,6.4084307E3,2.424573E4,1.749825E5,6.1420812E4,1.8393339E5,1.1040523E5,4.2635444E3,8.234563E3,7.3221245E3,3.6233901E3,3.9725406E4,1.109446E4,1.07160664E5,5.7199008E4,1.9609186E3,7.0916787E3,6.431794E3,1.6330302E3],"tree_param":{"num_deleted":"0","num_feature":"10","num_nodes":"63","size_leaf_vector":"0"}},{"base_weights":[1.05369814E-1,-4.3571305E-2,1.831959E-1,-1.366153E-1,7.135403E-2,1.2674299E-1,2.847888E-1,-3.0995905E-1,-7.888565E-2,-6.767608E-2,1.2530649E-1,7.659815E-2,1.9935745E-1,2.3054264E-1,3.6135647E-1,-2.2541806E-2,-3.579966E-1,-3.6905232E-1,-4.9046062E-2,-1.4993039E-1,8.5738756E-2,1.0653984E-1,3.7684318E-1,-5.4611098E-2,9.476886E-2,1.6558354E-1,2.8789085E-1,1.5306556E-1,2.7694592E-1,3.0139086E-1,4.014344E-1,-4.8757032E-1,2.0932691E-2,-6.002394E-1,-3.0256298E-1,-4.5832264E-1,-2.596014E-1,-1.1658694E-1,2.157708E-3,2.2636684E-2,-2.2484829E-1,1.2234196E-2,2.5344846E-1,7.775847E-2,1.6886668E-1,4.4787663E-1,3.3996662E-1,-1.19757876E-1,-2.6487285E-2,-1.2691603E-2,1.1854506E-1,1.797174E-1,5.3991906E-2,2.6046735E-1,3.8714263E-1,1.2921023E-1,2.1255568E-1,3.0425483E-1,1.3350327E-1,3.49557E-1,2.7195105E-1,4.2446345E-1,2.8785378E-1],"categories":[],"categories_nodes":[],"categories_segments":[],"categories_sizes":[],"default_left":[1,1,1,1,1,1,1,1,1,1,1,1,1,1,1,1,1,1,1,1,1,1,1,1,1,1,1,1,1,1,1,0,0,0,0,0,0,0,0,0,0,0,0,0,0,0,0,0,0,0,0,0,0,0,0,0,0,0,0,0,0,0,0],"id":7,"left_children":[1,3,5,7,9,11,13,15,17,19,21,23,25,27,29,31,33,35,37,39,41,43,45,47,49,51,53,55,57,59,61,-1,-1,-1,-1,-1,-1,-1,-1,-1,-1,-1,-1,-1,-1,-1,-1,-1,-1,-1,-1,-1,-1,-1,-1,-1,-1,-1,-1,-1,-1,-1,-1],"loss_changes":[1.1224332E4,3.5534824E3,3.645166E3,1.8356106E3,1.115233E3,1.4871768E3,9.400508E2,6.310376E2,1.1907433E3,5.243845E2,5.0291003E2,5.7692505E2,4.9669092E2,4.757124E2,2.2226855E2,1.3568939E2,5.2223584E2,1.2130322E2,4.3278873E2,3.5090887E2,1.7692471E2,1.7746753E2,1.4939697E1,5.3034973E1,5.435242E2,1.8939673E2,1.2169971E2,6.885449E1,3.2318652E2,5.0049316E1,1.4340723E2,0E0,0E0,0E0,0E0,0E0,0E0,0E0,0E0,0E0,0E0,0E0,0E0,0E0,0E0,0E0,0E0,0E0,0E0,0E0,0E0,0E0,0E0,0E0,0E0,0E0,0E0,0E0,0E0,0E0,0E0,0E0,0E0],"parents":[2147483647,0,0,1,1,2,2,3,3,4,4,5,5,6,6,7,7,8,8,9,9,10,10,11,11,12,12,13,13,14,14,15,15,16,16,17,17,18,18,19,19,20,20,21,21,22,22,23,23,24,24,25,25,26,26,27,27,28,28,29,29,30,30],"right_children":[2,4,6,8,10,12,14,16,18,20,22,24,26,28,30,32,34,36,38,40,42,44,46,48,50,52,54,56,58,60,62,-1,-1,-1,-1,-1,-1,-1,-1,-1,-1,-1,-1,-1,-1,-1,-1,-1,-1,-1,-1,-1,-1,-1,-1,-1,-1,-1,-1,-1,-1,-1,-1],"split_conditions":[5E-1,1.4607098E0,2.1028478E0,6.5E0,5.5E0,2.5E0,3.0451903E0,5E-1,2.1637192E-1,2.1028478E0,3.0451903E0,6.771257E-1,5.5E0,1.25E1,1.25E1,2.1637192E-1,3.7433642E-1,1.65E1,1.35E1,1.5E0,3.0451903E0,1.5E0,5E-1,3.7433642E-1,7.5E0,2.15E1,9.5E0,3.5E0,2.15E1,1.5E0,2.15E1,-1.462711E-1,6.2798075E-3,-1.8007183E-1,-9.0768896E-2,-1.374968E-1,-7.788043E-2,-3.4976084E-2,6.473124E-4,6.7910054E-3,-6.745449E-2,3.670259E-3,7.603454E-2,2.332754E-2,5.0660007E-2,1.34363E-1,1.0198999E-1,-3.5927363E-2,-7.946186E-3,-3.8074811E-3,3.556352E-2,5.3915225E-2,1.6197573E-2,7.814021E-2,1.16142794E-1,3.8763072E-2,6.37667E-2,9.127645E-2,4.0050983E-2,1.0486711E-1,8.158532E-2,1.2733904E-1,8.635613E-2],"split_indices":[4,9,9,8,8,4,9,8,9,9,9,9,4,8,8,9,9,8,8,8,9,1,3,9,8,8,4,4,8,2,8,0,0,0,0,0,0,0,0,0,0,0,0,0,0,0,0,0,0,0,0,0,0,0,0,0,0,0,0,0,0,0,0],"split_type":[0,0,0,0,0,0,0,0,0,0,0,0,0,0,0,0,0,0,0,0,0,0,0,0,0,0,0,0,0,0,0,0,0,0,0,0,0,0,0,0,0,0,0,0,0,0,0,0,0,0,0,0,0,0,0,0,0,0,0,0,0,0,0],"sum_hessian":[9.682559E5,3.3227956E5,6.359763E5,1.8364639E5,1.4863317E5,4.0884597E5,2.2713034E5,4.5855953E4,1.3779044E5,4.1525055E4,1.07108125E5,2.418862E5,1.6695977E5,1.3298788E5,9.414247E4,6.583235E3,3.927272E4,1.2830282E4,1.24960164E5,2.7055146E4,1.4469909E4,9.969348E4,7.414645E3,2.9386188E4,2.1250002E5,1.2090258E5,4.6057184E4,4.9860785E4,8.312709E4,3.777232E4,5.637015E4,5.727768E2,6.010458E3,7.293102E3,3.1979615E4,7.0371797E3,5.7931025E3,5.3929723E4,7.103044E4,8.1680386E3,1.8887107E4,1.0084081E4,4.3858286E3,6.826191E4,3.1431574E4,2.4790618E3,4.9355835E3,8.800845E3,2.0585342E4,3.8456895E4,1.7404312E5,1.072666E5,1.3635979E4,3.6132676E4,9.924506E3,3.565777E4,1.4203015E4,6.9799125E4,1.3327974E4,1.425393E4,2.3518389E4,4.682498E4,9.545169E3],"tree_param":{"num_deleted":"0","num_feature":"10","num_nodes":"63","size_leaf_vector":"0"}},{"base_weights":[7.405188E-2,3.4045458E-3,1.5775448E-1,-3.7392575E-2,6.740207E-2,1.371283E-1,2.6221934E-1,-1.3324356E-1,-5.500475E-3,-2.3983594E-2,9.191793E-2,1.10385224E-1,1.8750438E-1,2.4700488E-1,4.3531138E-1,-1.9739883E-1,-7.1288478E-3,9.109143E-3,-1.3468024E-1,-9.964294E-2,1.20394655E-1,1.0507254E-1,-3.4337092E-2,1.2244756E-1,2.0327555E-2,2.0124948E-1,8.1632145E-2,2.0498164E-1,2.9338652E-1,3.6074102E-1,4.9067205E-1,6.5042205E-2,-2.4586555E-1,-1.3900395E-1,1.4681703E-2,-3.9723143E-2,5.4930307E-2,-2.4028003E-1,-5.9066504E-2,6.016631E-2,-1.899259E-1,1.9464165E-1,4.8898764E-2,7.211079E-2,1.5351605E-1,-1.4786577E-1,4.492185E-2,-5.7827146E-3,1.3555858E-1,1.5072611E-1,-8.419399E-4,2.121633E-1,1.0639423E-1,1.0085952E-1,-1.0767267E-1,1.781229E-1,2.6585016E-1,2.5990987E-1,3.2900268E-1,2.9442683E-1,4.2001146E-1,4.0888596E-1,5.4044265E-1],"categories":[],"categories_nodes":[],"categories_segments":[],"categories_sizes":[],"default_left":[1,1,1,1,1,1,1,1,1,1,1,1,1,1,1,1,1,1,1,1,1,1,1,1,1,1,1,1,1,1,1,0,0,0,0,0,0,0,0,0,0,0,0,0,0,0,0,0,0,0,0,0,0,0,0,0,0,0,0,0,0,0,0],"id":8,"left_children":[1,3,5,7,9,11,13,15,17,19,21,23,25,27,29,31,33,35,37,39,41,43,45,47,49,51,53,55,57,59,61,-1,-1,-1,-1,-1,-1,-1,-1,-1,-1,-1,-1,-1,-1,-1,-1,-1,-1,-1,-1,-1,-1,-1,-1,-1,-1,-1,-1,-1,-1,-1,-1],"loss_changes":[5.708686E3,1.3673441E3,9.499326E2,9.766202E2,4.572115E2,4.955703E2,1.8790967E2,6.443716E2,4.5354556E2,4.7053595E2,2.674961E2,2.6119214E2,1.8457373E2,1.27725586E2,1.9302979E1,6.732593E2,7.814473E1,4.823558E2,1.9331595E2,4.0897623E2,7.716162E1,2.3138159E2,1.3677463E2,3.581875E2,7.961222E1,1.153833E2,5.364753E1,5.5057617E1,3.4553223E1,5.9301147E0,8.0477295E0,0E0,0E0,0E0,0E0,0E0,0E0,0E0,0E0,0E0,0E0,0E0,0E0,0E0,0E0,0E0,0E0,0E0,0E0,0E0,0E0,0E0,0E0,0E0,0E0,0E0,0E0,0E0,0E0,0E0,0E0,0E0,0E0],"parents":[2147483647,0,0,1,1,2,2,3,3,4,4,5,5,6,6,7,7,8,8,9,9,10,10,11,11,12,12,13,13,14,14,15,15,16,16,17,17,18,18,19,19,20,20,21,21,22,22,23,23,24,24,25,25,26,26,27,27,28,28,29,29,30,30],"right_children":[2,4,6,8,10,12,14,16,18,20,22,24,26,28,30,32,34,36,38,40,42,44,46,48,50,52,54,56,58,60,62,-1,-1,-1,-1,-1,-1,-1,-1,-1,-1,-1,-1,-1,-1,-1,-1,-1,-1,-1,-1,-1,-1,-1,-1,-1,-1,-1,-1,-1,-1,-1,-1],"split_conditions":[1.5E0,7.5E0,6.5E0,6.5E0,5.5E0,8.5E0,1.45E1,4.5E0,2.15E1,4.5E0,2.15E1,5.5E0,5.5E0,7.5E0,1.85E1,5E-1,1.5E0,1.35E1,2.5E0,1.5E0,2.5E0,1.45E1,2.5E0,5.5E0,2.5E0,2.15E1,2.15E1,5.5E0,1.75E1,7.5E0,1.65E1,1.9512663E-2,-7.375967E-2,-4.1701186E-2,4.4045113E-3,-1.1916944E-2,1.6479094E-2,-7.208401E-2,-1.7719952E-2,1.8049894E-2,-5.697777E-2,5.83925E-2,1.466963E-2,2.1633238E-2,4.6054818E-2,-4.4359732E-2,1.3476555E-2,-1.7348145E-3,4.0667575E-2,4.5217834E-2,-2.52582E-4,6.364899E-2,3.1918272E-2,3.0257858E-2,-3.2301802E-2,5.343687E-2,7.975505E-2,7.797296E-2,9.870081E-2,8.832805E-2,1.2600344E-1,1.2266579E-1,1.621328E-1],"split_indices":[4,6,4,8,8,6,4,7,8,7,8,7,7,6,8,8,6,8,7,8,8,8,7,8,8,8,8,3,8,6,4,0,0,0,0,0,0,0,0,0,0,0,0,0,0,0,0,0,0,0,0,0,0,0,0,0,0,0,0,0,0,0,0],"split_type":[0,0,0,0,0,0,0,0,0,0,0,0,0,0,0,0,0,0,0,0,0,0,0,0,0,0,0,0,0,0,0,0,0,0,0,0,0,0,0,0,0,0,0,0,0,0,0,0,0,0,0,0,0,0,0,0,0,0,0,0,0,0,0],"sum_hessian":[9.6553606E5,5.2363788E5,4.418982E5,3.197306E5,2.0390727E5,3.6907978E5,7.281842E4,7.97795E4,2.399511E5,4.308366E4,1.6082361E5,2.4116519E5,1.2791459E5,6.696641E4,5.8520107E3,5.285015E4,2.692935E4,2.1553361E5,2.4417473E4,2.8294658E4,1.4789004E4,1.4568798E5,1.5135622E4,2.1262478E5,2.8540402E4,1.1316928E5,1.4745311E4,3.5198996E4,3.1767412E4,2.5389424E3,3.3130684E3,8.22095E3,4.46292E4,3.8567478E3,2.3072602E4,1.0428048E5,1.1125313E5,1.0157254E4,1.426022E4,1.0192462E4,1.8102195E4,7.2163384E3,7.572666E3,8.676659E4,5.8921395E4,6.250738E3,8.884885E3,1.9684521E4,1.9294027E5,4.0216677E3,2.4518734E4,1.01438766E5,1.1730517E4,1.3412541E4,1.332769E3,2.448782E4,1.0711177E4,1.6459428E4,1.5307982E4,1.2448813E3,1.294061E3,1.298695E3,2.0143733E3],"tree_param":{"num_deleted":"0","num_feature":"10","num_nodes":"63","size_leaf_vector":"0"}},{"base_weights":[5.1954553E-2,2.6441342E-3,1.2480497E-1,-1.2558693E-1,2.4865668E-2,6.3843764E-2,1.5389854E-1,-1.9159213E-1,-9.346851E-3,-2.7365468E-2,6.0151357E-2,2.6798487E-2,1.1231977E-1,1.778166E-1,4.9604967E-2,3.4552386E-3,-2.3632273E-1,1.116805E-2,-1.0000637E-1,-5.3282656E-2,3.4369744E-2,7.468268E-2,-4.0602516E-2,9.974455E-3,1.03544764E-1,9.6821606E-2,2.4505699E-1,1.4711314E-1,2.2347054E-1,-4.7474682E-2,1.1538869E-1,5.2220527E-2,-9.005616E-2,-2.9064006E-1,-8.75656E-2,-1.3605835E-2,6.675348E-2,-1.7955588E-1,-3.4690496E-2,-9.104037E-3,-8.064848E-2,4.3212794E-2,-2.2246812E-1,8.519368E-2,-4.2209644E-2,-1.6651416E-1,-8.3553995E-4,9.6599534E-2,-2.5361509E-3,1.1989862E-1,1.4165031E-2,1.7572242E-1,7.736046E-2,2.7385965E-1,-7.867814E-2,1.2681825E-1,2.0121372E-1,2.967577E-1,1.6737823E-1,1.2935831E-2,-1.2064994E-1,1.5117666E-1,-4.986329E-2],"categories":[],"categories_nodes":[],"categories_segments":[],"categories_sizes":[],"default_left":[1,1,1,1,1,1,1,1,1,1,1,1,1,1,1,1,1,1,1,1,1,1,1,1,1,1,1,1,1,1,1,0,0,0,0,0,0,0,0,0,0,0,0,0,0,0,0,0,0,0,0,0,0,0,0,0,0,0,0,0,0,0,0],"id":9,"left_children":[1,3,5,7,9,11,13,15,17,19,21,23,25,27,29,31,33,35,37,39,41,43,45,47,49,51,53,55,57,59,61,-1,-1,-1,-1,-1,-1,-1,-1,-1,-1,-1,-1,-1,-1,-1,-1,-1,-1,-1,-1,-1,-1,-1,-1,-1,-1,-1,-1,-1,-1,-1,-1],"loss_changes":[3.462997E3,1.6380433E3,6.889946E2,6.50261E2,9.035379E2,2.251195E2,6.5572266E2,4.7344727E2,5.773478E1,3.1620407E2,4.2857068E2,9.1519745E1,1.1005243E2,2.9817627E2,3.144349E2,4.573491E1,3.5379004E2,3.4789917E1,2.8583447E1,1.6780722E2,1.3155678E2,3.144806E2,1.8350793E2,6.40171E1,1.793071E1,7.348242E1,5.3798096E1,1.388667E2,3.5115625E2,8.825544E1,1.7412619E2,0E0,0E0,0E0,0E0,0E0,0E0,0E0,0E0,0E0,0E0,0E0,0E0,0E0,0E0,0E0,0E0,0E0,0E0,0E0,0E0,0E0,0E0,0E0,0E0,0E0,0E0,0E0,0E0,0E0,0E0,0E0,0E0],"parents":[2147483647,0,0,1,1,2,2,3,3,4,4,5,5,6,6,7,7,8,8,9,9,10,10,11,11,12,12,13,13,14,14,15,15,16,16,17,17,18,18,19,19,20,20,21,21,22,22,23,23,24,24,25,25,26,26,27,27,28,28,29,29,30,30],"right_children":[2,4,6,8,10,12,14,16,18,20,22,24,26,28,30,32,34,36,38,40,42,44,46,48,50,52,54,56,58,60,62,-1,-1,-1,-1,-1,-1,-1,-1,-1,-1,-1,-1,-1,-1,-1,-1,-1,-1,-1,-1,-1,-1,-1,-1,-1,-1,-1,-1,-1,-1,-1,-1],"split_conditions":[1.5E0,5.5E0,1.25E1,4.5E0,5E-1,3.5E0,2.15E1,5E-1,4.5E0,8.5E0,5.5E0,1.05E1,1.15E1,3.5E0,2.5E0,1.5E0,4.5E0,8.5E0,5.5E0,3.5E0,2.25E1,2.15E1,1.15E1,5E-1,5.5E0,5E-1,2.55E1,9.5E0,4.5E0,2.25E1,5.5E0,1.5666159E-2,-2.7016848E-2,-8.719202E-2,-2.6269682E-2,-4.0817508E-3,2.0026043E-2,-5.3866766E-2,-1.0407149E-2,-2.731211E-3,-2.4194546E-2,1.2963839E-2,-6.674044E-2,2.5558105E-2,-1.2662894E-2,-4.995425E-2,-2.50662E-4,2.8979862E-2,-7.608453E-4,3.5969585E-2,4.2495094E-3,5.271673E-2,2.3208138E-2,8.2157895E-2,-2.3603443E-2,3.8045477E-2,6.0364116E-2,8.9027315E-2,5.021347E-2,3.8807495E-3,-3.6194984E-2,4.5353E-2,-1.4958988E-2],"split_indices":[1,8,8,7,4,1,8,8,8,6,7,6,6,7,7,3,8,6,6,6,8,8,8,8,7,8,5,6,7,8,7,0,0,0,0,0,0,0,0,0,0,0,0,0,0,0,0,0,0,0,0,0,0,0,0,0,0,0,0,0,0,0,0],"split_type":[0,0,0,0,0,0,0,0,0,0,0,0,0,0,0,0,0,0,0,0,0,0,0,0,0,0,0,0,0,0,0,0,0,0,0,0,0,0,0,0,0,0,0,0,0,0,0,0,0,0,0,0,0,0,0,0,0,0,0,0,0,0,0],"sum_hessian":[9.642038E5,5.7504706E5,3.8915678E5,8.489601E4,4.9015106E5,1.2578515E5,2.6337162E5,5.411796E4,3.0778043E4,1.9756002E5,2.9259103E5,7.136395E4,5.4421195E4,2.1419583E5,4.91758E4,1.0072945E4,4.4045016E4,2.5049846E4,5.7281978E3,1.3920803E5,5.8351984E4,2.5575883E5,3.6832207E4,5.859235E4,1.2771602E4,4.8770055E4,5.6511416E3,1.2814184E5,8.6053984E4,1.9829416E4,2.9346385E4,6.659394E3,3.4135518E3,3.2236293E4,1.1808723E4,1.7259336E4,7.79051E3,2.543934E3,3.1842637E3,5.3324613E4,8.588342E4,5.6431273E4,1.9207097E3,2.3470169E5,2.1057133E4,8.806682E3,2.8025525E4,7.448799E3,5.114355E4,1.0743906E4,2.0276947E3,9.591766E3,3.917829E4,5.2051807E3,4.4596103E2,9.326144E4,3.4880406E4,3.726422E4,4.878976E4,1.0821384E4,9.008033E3,2.4149738E4,5.1966465E3],"tree_param":{"num_deleted":"0","num_feature":"10","num_nodes":"63","size_leaf_vector":"0"}},{"base_weights":[3.641547E-2,-6.61564E-2,7.799898E-2,-2.0624211E-1,-3.621758E-2,5.8113065E-2,1.8839343E-1,-2.819375E-1,-1.1791342E-1,-6.0835354E-2,1.788893E-2,7.112503E-2,-2.6187863E-2,1.6079655E-1,2.2765563E-1,-5.022832E-1,-2.3519503E-1,-1.9304731E-1,9.377511E-3,-1.12870194E-1,-3.5576273E-2,-3.9901745E-2,8.857168E-2,-4.6802647E-3,9.1593534E-2,1.5715188E-1,-5.4087132E-2,9.412711E-2,1.7134832E-1,2.9631814E-1,2.0972528E-1,-2.6626274E-1,-5.9166837E-1,-3.2602975E-1,-1.8122846E-1,-3.1880468E-1,-1.1794194E-1,3.772812E-2,-6.723372E-2,-2.0725304E-1,-8.958251E-2,-5.1597506E-2,1.1666001E-2,-1.3515465E-2,-2.1726474E-1,1.3401401E-1,-1.6337031E-2,-6.5477304E-2,4.138851E-2,9.89458E-2,-4.0042408E-2,1.770916E-1,-6.998203E-2,-8.179743E-2,7.704093E-2,3.8543515E-2,1.7093948E-1,3.1664443E-1,1.6070496E-1,2.4860929E-1,3.2703215E-1,2.0369749E-1,3.5109207E-1],"categories":[],"categories_nodes":[],"categories_segments":[],"categories_sizes":[],"default_left":[1,1,1,1,1,1,1,1,1,1,1,1,1,1,1,1,1,1,1,1,1,1,1,1,1,1,1,1,1,1,1,0,0,0,0,0,0,0,0,0,0,0,0,0,0,0,0,0,0,0,0,0,0,0,0,0,0,0,0,0,0,0,0],"id":10,"left_children":[1,3,5,7,9,11,13,15,17,19,21,23,25,27,29,31,33,35,37,39,41,43,45,47,49,51,53,55,57,59,61,-1,-1,-1,-1,-1,-1,-1,-1,-1,-1,-1,-1,-1,-1,-1,-1,-1,-1,-1,-1,-1,-1,-1,-1,-1,-1,-1,-1,-1,-1,-1,-1],"loss_changes":[4.1085684E3,1.1638411E3,1.5033276E3,3.2463428E2,3.0517383E2,6.373843E2,1.1113989E2,2.666228E2,2.1712073E2,2.0607788E2,2.924193E2,7.8130225E2,3.964195E2,4.1786743E1,5.0194336E1,9.174426E1,1.0359082E2,1.3202502E2,1.7999855E1,1.1125867E2,8.0483795E1,1.8268124E2,1.5422777E2,2.9964178E2,3.8387378E2,4.690808E1,2.4488734E2,3.503305E1,7.932019E1,9.727844E0,2.604358E1,0E0,0E0,0E0,0E0,0E0,0E0,0E0,0E0,0E0,0E0,0E0,0E0,0E0,0E0,0E0,0E0,0E0,0E0,0E0,0E0,0E0,0E0,0E0,0E0,0E0,0E0,0E0,0E0,0E0,0E0,0E0,0E0],"parents":[2147483647,0,0,1,1,2,2,3,3,4,4,5,5,6,6,7,7,8,8,9,9,10,10,11,11,12,12,13,13,14,14,15,15,16,16,17,17,18,18,19,19,20,20,21,21,22,22,23,23,24,24,25,25,26,26,27,27,28,28,29,29,30,30],"right_children":[2,4,6,8,10,12,14,16,18,20,22,24,26,28,30,32,34,36,38,40,42,44,46,48,50,52,54,56,58,60,62,-1,-1,-1,-1,-1,-1,-1,-1,-1,-1,-1,-1,-1,-1,-1,-1,-1,-1,-1,-1,-1,-1,-1,-1,-1,-1,-1,-1,-1,-1,-1,-1],"split_conditions":[1.2069247E0,3.7433642E-1,3.0451903E0,3.5E0,1.75E1,5.5E0,7.5E0,6.5E0,1.65E1,6.771257E-1,3.5E0,7.5E0,1.4607098E0,4.5E0,1.5E0,5E-1,2.1637192E-1,2.1637192E-1,2.15E1,4.5E0,9.5E0,2.25E1,5.5E0,2.5E0,2.25E1,2.15E1,2.355929E0,4.5E0,6.5E0,9.5E0,1.45E1,-7.987882E-2,-1.7750052E-1,-9.780893E-2,-5.436854E-2,-9.564141E-2,-3.5382584E-2,1.1318436E-2,-2.0170117E-2,-6.2175915E-2,-2.6874755E-2,-1.5479253E-2,3.4998003E-3,-4.0546395E-3,-6.517942E-2,4.0204205E-2,-4.9011097E-3,-1.9643191E-2,1.2416554E-2,2.968374E-2,-1.2012723E-2,5.3127483E-2,-2.099461E-2,-2.453923E-2,2.311228E-2,1.1563055E-2,5.1281843E-2,9.499333E-2,4.821149E-2,7.458279E-2,9.810965E-2,6.110925E-2,1.0532763E-1],"split_indices":[9,9,9,7,8,7,6,8,8,9,7,8,9,8,4,7,9,9,8,8,6,8,7,7,8,8,9,7,8,6,4,0,0,0,0,0,0,0,0,0,0,0,0,0,0,0,0,0,0,0,0,0,0,0,0,0,0,0,0,0,0,0,0],"split_type":[0,0,0,0,0,0,0,0,0,0,0,0,0,0,0,0,0,0,0,0,0,0,0,0,0,0,0,0,0,0,0,0,0,0,0,0,0,0,0,0,0,0,0,0,0,0,0,0,0,0,0,0,0,0,0,0,0,0,0,0,0,0,0],"sum_hessian":[9.6323706E5,2.7782006E5,6.8541706E5,4.8886645E4,2.289334E5,5.808389E5,1.0457813E5,2.6291258E4,2.2595387E4,1.574137E5,7.151971E4,5.0323003E5,7.760885E4,6.1497535E4,4.30806E4,4.578874E3,2.1712385E4,1.4235518E4,8.35987E3,5.1369344E4,1.0604436E5,3.930572E4,3.2213986E4,1.0693336E5,3.962967E5,1.0223494E4,6.738536E4,8.475808E3,5.3021727E4,8.853762E3,3.422684E4,1.2757583E3,3.3031157E3,8.0522114E3,1.3660172E4,5.2942627E3,8.941255E3,6.154606E3,2.2052637E3,1.0117987E4,4.125136E4,7.9275914E4,2.6768447E4,3.4243414E4,5.0623047E3,2.251397E4,9.700017E3,4.614918E4,6.078418E4,3.75373E5,2.0923697E4,9.420886E3,8.0260913E2,5.566452E4,1.1720839E4,4.9598354E3,3.515972E3,3.58167E3,4.9440055E4,3.5412356E3,5.3125264E3,3.286677E4,1.3600696E3],"tree_param":{"num_deleted":"0","num_feature":"10","num_nodes":"63","size_leaf_vector":"0"}},{"base_weights":[2.5507787E-2,4.205516E-3,8.214755E-2,-1.9648809E-2,4.0524174E-2,7.541276E-2,1.9289216E-1,-5.4117434E-2,5.0918856E-3,-1.5503461E-2,5.039655E-2,4.3764383E-2,9.668247E-2,1.817518E-1,3.761764E-1,-1.2786101E-1,-3.3533927E-2,1.25271585E-2,-7.54564E-2,4.3481763E-2,-7.435847E-2,6.820208E-2,4.0781694E-3,6.225301E-2,-2.5898973E-2,5.3675573E-2,1.2175171E-1,1.2790047E-1,2.1355438E-1,-0E0,3.928912E-1,-2.1461876E-1,-6.536418E-2,1.4262616E-3,-6.020986E-2,3.693714E-2,-7.613102E-3,-2.3963948E-1,-5.2113105E-2,-2.1174004E-2,8.28924E-2,-1.29072E-1,1.2277665E-2,1.394012E-1,4.4023033E-2,-1.23259306E-1,4.4973105E-2,-4.294342E-2,8.1797495E-2,-8.641256E-2,1.5670007E-2,1.0089753E-1,9.4389287E-4,1.0619904E-1,1.7651911E-1,1.1653348E-1,2.9085997E-1,2.4912837E-1,1.2751295E-1,-1.7928466E-1,1.10807575E-1,4.012919E-1,-0E0],"categories":[],"categories_nodes":[],"categories_segments":[],"categories_sizes":[],"default_left":[1,1,1,1,1,1,1,1,1,1,1,1,1,1,1,1,1,1,1,1,1,1,1,1,1,1,1,1,1,1,1,0,0,0,0,0,0,0,0,0,0,0,0,0,0,0,0,0,0,0,0,0,0,0,0,0,0,0,0,0,0,0,0],"id":11,"left_children":[1,3,5,7,9,11,13,15,17,19,21,23,25,27,29,31,33,35,37,39,41,43,45,47,49,51,53,55,57,59,61,-1,-1,-1,-1,-1,-1,-1,-1,-1,-1,-1,-1,-1,-1,-1,-1,-1,-1,-1,-1,-1,-1,-1,-1,-1,-1,-1,-1,-1,-1,-1,-1],"loss_changes":[1.1606698E3,6.0605646E2,1.9463074E2,3.6018832E2,1.5360721E2,1.6611523E2,2.7545776E1,2.6694E2,1.4674808E2,1.4413249E2,1.9414789E2,1.2868573E2,1.5877905E2,2.2407135E1,4.1699753E0,2.0689795E2,1.2902615E2,1.1073457E2,7.769115E1,5.2998383E1,9.925831E1,2.921701E2,3.411212E2,1.6242932E2,5.286551E1,1.355157E2,7.808887E1,7.6125793E0,2.5014252E1,6.944086E-1,1.6070862E0,0E0,0E0,0E0,0E0,0E0,0E0,0E0,0E0,0E0,0E0,0E0,0E0,0E0,0E0,0E0,0E0,0E0,0E0,0E0,0E0,0E0,0E0,0E0,0E0,0E0,0E0,0E0,0E0,0E0,0E0,0E0,0E0],"parents":[2147483647,0,0,1,1,2,2,3,3,4,4,5,5,6,6,7,7,8,8,9,9,10,10,11,11,12,12,13,13,14,14,15,15,16,16,17,17,18,18,19,19,20,20,21,21,22,22,23,23,24,24,25,25,26,26,27,27,28,28,29,29,30,30],"right_children":[2,4,6,8,10,12,14,16,18,20,22,24,26,28,30,32,34,36,38,40,42,44,46,48,50,52,54,56,58,60,62,-1,-1,-1,-1,-1,-1,-1,-1,-1,-1,-1,-1,-1,-1,-1,-1,-1,-1,-1,-1,-1,-1,-1,-1,-1,-1,-1,-1,-1,-1,-1,-1],"split_conditions":[2.5E0,7.5E0,9.5E0,5E-1,5.5E0,2.5E0,1.35E1,5.5E0,2.15E1,2.5E0,4.5E0,2.05E1,1.25E1,1.75E1,1.5E0,2.5E0,3.5E0,3.5E0,5E-1,2.5E0,4.5E0,9.5E0,1.05E1,4.5E0,5.5E0,3.5E0,6.5E0,1.15E1,2.15E1,1.05E1,2.85E1,-6.438563E-2,-1.9609256E-2,4.278785E-4,-1.8062958E-2,1.1081142E-2,-2.2839308E-3,-7.1891844E-2,-1.5633931E-2,-6.3522016E-3,2.4867723E-2,-3.87216E-2,3.6832995E-3,4.1820362E-2,1.320691E-2,-3.6977794E-2,1.3491932E-2,-1.2883027E-2,2.4539249E-2,-2.5923768E-2,4.7010025E-3,3.026926E-2,2.8316787E-4,3.1859715E-2,5.2955735E-2,3.4960046E-2,8.7257996E-2,7.473852E-2,3.8253885E-2,-5.3785402E-2,3.3242274E-2,1.2038758E-1,-0E0],"split_indices":[1,6,4,4,8,7,1,8,8,8,7,8,8,8,6,7,6,6,7,7,8,8,8,8,6,8,1,2,8,4,1,0,0,0,0,0,0,0,0,0,0,0,0,0,0,0,0,0,0,0,0,0,0,0,0,0,0,0,0,0,0,0,0],"split_type":[0,0,0,0,0,0,0,0,0,0,0,0,0,0,0,0,0,0,0,0,0,0,0,0,0,0,0,0,0,0,0,0,0,0,0,0,0,0,0,0,0,0,0,0,0,0,0,0,0,0,0,0,0,0,0,0,0,0,0,0,0,0,0],"sum_hessian":[9.6236244E5,6.994114E5,2.629511E5,4.220532E5,2.773582E5,2.4792517E5,1.5025924E4,1.7644789E5,2.456053E5,4.146704E4,2.3589114E5,9.975535E4,1.4816983E5,1.4195117E4,8.308061E2,3.844398E4,1.380039E5,2.2491308E5,2.069221E4,2.0664066E4,2.0802975E4,1.7030423E5,6.55869E4,7.889556E4,2.0859791E4,5.4645934E4,9.352389E4,5.336603E3,8.858515E3,4.2255684E1,7.885504E2,1.605964E4,2.238434E4,5.9638863E4,7.836505E4,1.0180173E5,1.2311136E5,2.5452856E3,1.8146924E4,7.772943E3,1.2891123E4,1.2789184E4,8.0137905E3,4.3114465E4,1.2718977E5,1.591007E4,4.9676824E4,1.2317127E4,6.657843E4,8.547742E3,1.2312049E4,2.8773578E4,2.5872354E4,7.291974E4,2.0604146E4,5.021782E3,3.1482056E2,6.2207256E3,2.6377886E3,6.602601E0,3.5653084E1,7.65819E2,2.2731451E1],"tree_param":{"num_deleted":"0","num_feature":"10","num_nodes":"63","size_leaf_vector":"0"}},{"base_weights":[1.7877206E-2,-1.6979372E-2,4.11382E-2,-8.620435E-2,-5.602146E-3,3.3035487E-2,9.259422E-2,-1.3340983E-1,4.179762E-3,5.538743E-4,-9.0802185E-2,9.932863E-3,4.948473E-2,5.9462387E-2,1.2910467E-1,-2.115914E-1,-4.4410948E-2,2.9905183E-2,-9.8016754E-2,1.4491737E-2,-3.683221E-2,-1.9568044E-1,-5.3757735E-2,7.899192E-2,2.261703E-3,7.0502155E-2,-3.5414863E-3,7.678777E-2,9.1304695E-3,1.656023E-1,1.04397625E-1,-6.957812E-2,-2.6174462E-1,-7.344489E-2,6.857138E-2,2.1939093E-2,1.6459295E-1,-8.869162E-2,-5.3751314E-1,7.153937E-2,-2.1579513E-2,-1.6593526E-1,1.567114E-2,-2.6339865E-1,-1.3946077E-1,-9.864247E-3,-2.0596787E-1,5.3781386E-2,1.2518029E-1,-2.6296852E-2,1.4460223E-2,4.4941373E-2,9.0568334E-2,-3.678756E-2,3.9798155E-2,6.2492847E-2,1.2577088E-1,-2.3251846E-2,6.4584956E-2,1.0251708E-1,2.210499E-1,6.756431E-2,1.4595239E-1],"categories":[],"categories_nodes":[],"categories_segments":[],"categories_sizes":[],"default_left":[1,1,1,1,1,1,1,1,1,1,1,1,1,1,1,1,1,1,1,1,1,1,1,1,1,1,1,1,1,1,1,0,0,0,0,0,0,0,0,0,0,0,0,0,0,0,0,0,0,0,0,0,0,0,0,0,0,0,0,0,0,0,0],"id":12,"left_children":[1,3,5,7,9,11,13,15,17,19,21,23,25,27,29,31,33,35,37,39,41,43,45,47,49,51,53,55,57,59,61,-1,-1,-1,-1,-1,-1,-1,-1,-1,-1,-1,-1,-1,-1,-1,-1,-1,-1,-1,-1,-1,-1,-1,-1,-1,-1,-1,-1,-1,-1,-1,-1],"loss_changes":[7.800984E2,3.0265747E2,2.3989587E2,2.3223987E2,1.7392615E2,1.8916455E2,9.380664E1,2.4689734E2,4.8472702E1,1.6053807E2,8.541902E1,1.0948835E2,3.2481262E2,3.5444168E1,3.2064453E1,1.3323657E2,5.4889473E1,1.4942456E1,1.1645367E1,4.6265747E2,5.6765234E2,1.980011E1,1.09384125E2,2.308371E1,6.502652E1,1.0622168E2,1.1894508E2,2.0355011E1,1.9317354E1,5.043924E1,3.2932938E1,0E0,0E0,0E0,0E0,0E0,0E0,0E0,0E0,0E0,0E0,0E0,0E0,0E0,0E0,0E0,0E0,0E0,0E0,0E0,0E0,0E0,0E0,0E0,0E0,0E0,0E0,0E0,0E0,0E0,0E0,0E0,0E0],"parents":[2147483647,0,0,1,1,2,2,3,3,4,4,5,5,6,6,7,7,8,8,9,9,10,10,11,11,12,12,13,13,14,14,15,15,16,16,17,17,18,18,19,19,20,20,21,21,22,22,23,23,24,24,25,25,26,26,27,27,28,28,29,29,30,30],"right_children":[2,4,6,8,10,12,14,16,18,20,22,24,26,28,30,32,34,36,38,40,42,44,46,48,50,52,54,56,58,60,62,-1,-1,-1,-1,-1,-1,-1,-1,-1,-1,-1,-1,-1,-1,-1,-1,-1,-1,-1,-1,-1,-1,-1,-1,-1,-1,-1,-1,-1,-1,-1,-1],"split_conditions":[5E-1,5.5E0,5.5E0,4.5E0,2.15E1,1.35E1,3.5E0,5E-1,4.5E0,4.5E0,1.5E0,5E-1,2.05E1,2.05E1,4.5E0,1.5E0,4.5E0,4.5E0,3.05E1,9.5E0,1.05E1,5E-1,5.5E0,4.5E0,4.5E0,2.5E0,3.5E0,5.5E0,8.5E0,1.85E1,4.5E0,-2.0873437E-2,-7.852339E-2,-2.2033468E-2,2.0571414E-2,6.5817283E-3,4.937789E-2,-2.6607487E-2,-1.6125394E-1,2.1461813E-2,-6.473854E-3,-4.978058E-2,4.701342E-3,-7.90196E-2,-4.1838232E-2,-2.9592745E-3,-6.1790366E-2,1.6134417E-2,3.755409E-2,-7.889056E-3,4.338067E-3,1.3482412E-2,2.7170502E-2,-1.10362675E-2,1.1939447E-2,1.8747855E-2,3.7731268E-2,-6.9755544E-3,1.9375488E-2,3.0755127E-2,6.631497E-2,2.0269293E-2,4.3785717E-2],"split_indices":[1,8,2,7,8,8,7,0,8,7,7,8,8,8,7,8,8,2,5,8,8,4,7,7,8,7,7,0,2,8,1,0,0,0,0,0,0,0,0,0,0,0,0,0,0,0,0,0,0,0,0,0,0,0,0,0,0,0,0,0,0,0,0],"split_type":[0,0,0,0,0,0,0,0,0,0,0,0,0,0,0,0,0,0,0,0,0,0,0,0,0,0,0,0,0,0,0,0,0,0,0,0,0,0,0,0,0,0,0,0,0,0,0,0,0,0,0,0,0,0,0,0,0,0,0,0,0,0,0],"sum_hessian":[9.6196994E5,3.849246E5,5.770454E5,5.426402E4,3.3066056E5,4.9863456E5,7.841079E4,3.568629E4,1.857773E4,3.0831975E5,2.234081E4,2.0751708E5,2.9111747E5,4.1187754E4,3.722304E4,1.8964045E4,1.6722244E4,1.4885264E4,3.6924683E3,2.2469806E5,8.3621695E4,5.7914937E3,1.6549316E4,2.0674064E4,1.8684302E5,2.085573E5,8.256019E4,3.055889E4,1.0628861E4,1.4934002E4,2.2289037E4,4.978641E3,1.3985404E4,1.3342539E4,3.3797048E3,1.4093691E4,7.9157153E2,3.6291812E3,6.328698E1,8.709945E4,1.375986E5,2.4205125E4,5.9416574E4,2.5810405E3,3.2104534E3,1.2873989E4,3.6753281E3,1.3452605E4,7.2214585E3,5.578649E4,1.3105652E5,9.184293E4,1.1671437E5,4.679248E4,3.5767707E4,2.3744117E4,6.8147734E3,6.6481274E3,3.9807341E3,7.033601E3,7.9004004E3,1.1887328E4,1.040171E4],"tree_param":{"num_deleted":"0","num_feature":"10","num_nodes":"63","size_leaf_vector":"0"}},{"base_weights":[1.2521518E-2,-1.358942E-2,3.2517325E-2,8.086794E-3,-4.754441E-2,2.3721159E-2,7.744443E-2,-4.5568995E-2,3.4416035E-2,-7.157551E-2,1.3626948E-2,1.7759891E-2,7.4227996E-2,5.569079E-2,1.00039296E-1,-1.8711948E-1,-3.0695451E-3,5.938864E-2,3.7838952E-3,-1.0377353E-1,-3.93456E-2,4.307547E-3,1.1929651E-1,5.5119945E-3,3.3270743E-2,1.15086205E-1,4.8374046E-2,4.1572694E-2,1.2191086E-1,1.1688942E-1,4.942859E-2,-2.2766902E-1,-1.1261383E-1,9.680695E-3,-3.605042E-2,-8.480638E-3,6.964419E-2,4.4888806E-2,-3.198407E-2,-1.1691317E-1,-2.573672E-2,-5.257896E-2,6.5351124E-3,4.6986785E-5,1.3772006E-1,7.300369E-2,1.861174E-1,-1.3721795E-2,2.0064285E-2,5.1753525E-2,-3.8017859E-3,1.0855886E-1,3.9560366E-1,4.177379E-2,1.7887324E-1,1.7727561E-2,6.9890976E-2,1.3453907E-1,2.6186088E-2,1.0399676E-1,1.5568157E-1,2.8912397E-2,1.6149539E-1],"categories":[],"categories_nodes":[],"categories_segments":[],"categories_sizes":[],"default_left":[1,1,1,1,1,1,1,1,1,1,1,1,1,1,1,1,1,1,1,1,1,1,1,1,1,1,1,1,1,1,1,0,0,0,0,0,0,0,0,0,0,0,0,0,0,0,0,0,0,0,0,0,0,0,0,0,0,0,0,0,0,0,0],"id":13,"left_children":[1,3,5,7,9,11,13,15,17,19,21,23,25,27,29,31,33,35,37,39,41,43,45,47,49,51,53,55,57,59,61,-1,-1,-1,-1,-1,-1,-1,-1,-1,-1,-1,-1,-1,-1,-1,-1,-1,-1,-1,-1,-1,-1,-1,-1,-1,-1,-1,-1,-1,-1,-1,-1],"loss_changes":[5.0218555E2,3.0708453E2,2.1470386E2,3.5930548E2,2.3927386E2,1.3667548E2,4.2924133E1,5.0228116E2,1.3024135E2,1.2038507E2,4.4406357E1,7.722557E1,4.980255E1,4.164572E1,3.623706E1,5.6381042E1,2.7217422E1,6.5726135E1,1.1294056E2,5.9020264E1,3.573751E1,2.3184896E1,9.891228E0,6.384311E1,1.2336586E2,3.1094742E1,2.4173927E1,2.4895996E1,8.697472E0,1.4862946E1,2.416181E1,0E0,0E0,0E0,0E0,0E0,0E0,0E0,0E0,0E0,0E0,0E0,0E0,0E0,0E0,0E0,0E0,0E0,0E0,0E0,0E0,0E0,0E0,0E0,0E0,0E0,0E0,0E0,0E0,0E0,0E0,0E0,0E0],"parents":[2147483647,0,0,1,1,2,2,3,3,4,4,5,5,6,6,7,7,8,8,9,9,10,10,11,11,12,12,13,13,14,14,15,15,16,16,17,17,18,18,19,19,20,20,21,21,22,22,23,23,24,24,25,25,26,26,27,27,28,28,29,29,30,30],"right_children":[2,4,6,8,10,12,14,16,18,20,22,24,26,28,30,32,34,36,38,40,42,44,46,48,50,52,54,56,58,60,62,-1,-1,-1,-1,-1,-1,-1,-1,-1,-1,-1,-1,-1,-1,-1,-1,-1,-1,-1,-1,-1,-1,-1,-1,-1,-1,-1,-1,-1,-1,-1,-1],"split_conditions":[5.5E0,3.5E0,4.5E0,1.5E0,2.5E0,4.5E0,9.5E0,8.5E0,1.65E1,5E-1,9.5E0,3.5E0,1.5E0,9.5E0,4.5E0,1.5E0,4.5E0,5E-1,2.5E0,2.65E1,3.5E0,9.5E0,2.05E1,8.5E0,5.5E0,1.55E1,1.35E1,3.5E0,5.5E0,3.5E0,7.5E0,-6.830071E-2,-3.378415E-2,2.9042086E-3,-1.0815127E-2,-2.5441917E-3,2.0893257E-2,1.3466642E-2,-9.595221E-3,-3.507395E-2,-7.721016E-3,-1.577369E-2,1.960534E-3,1.4096036E-5,4.131602E-2,2.1901106E-2,5.583522E-2,-4.1165384E-3,6.019286E-3,1.5526058E-2,-1.1405358E-3,3.256766E-2,1.186811E-1,1.2532137E-2,5.3661976E-2,5.3182687E-3,2.0967294E-2,4.036172E-2,7.855827E-3,3.1199029E-2,4.670447E-2,8.673719E-3,4.844862E-2],"split_indices":[6,6,4,6,4,0,6,5,5,2,4,7,3,4,7,4,7,7,6,5,2,0,5,6,7,0,0,7,7,7,2,0,0,0,0,0,0,0,0,0,0,0,0,0,0,0,0,0,0,0,0,0,0,0,0,0,0,0,0,0,0,0,0],"split_type":[0,0,0,0,0,0,0,0,0,0,0,0,0,0,0,0,0,0,0,0,0,0,0,0,0,0,0,0,0,0,0,0,0,0,0,0,0,0,0,0,0,0,0,0,0,0,0,0,0,0,0,0,0,0,0,0,0,0,0,0,0,0,0],"sum_hessian":[9.616387E5,4.169292E5,5.447095E5,2.5437795E5,1.6255122E5,4.556273E5,8.9082195E4,8.36664E4,1.7071156E5,1.1676856E5,4.5782656E4,4.0762594E5,4.8001402E4,4.551177E4,4.357043E4,1.9288957E4,6.437744E4,9.3943984E4,7.676757E4,5.8326707E4,5.8441855E4,4.212094E4,3.6617163E3,2.2796945E5,1.7965647E5,1.8518914E4,2.948249E4,3.7583633E4,7.9281333E3,3.2605053E4,1.0965378E4,1.2441708E4,6.8472485E3,4.630868E4,1.806876E4,1.22617705E4,8.168221E4,3.5790395E4,4.097718E4,4.9860363E4,8.466344E3,4.545191E4,1.2989947E4,4.0858348E4,1.2625951E3,2.2129849E3,1.4487314E3,9.802791E4,1.2994155E5,1.1998502E5,5.967145E4,1.8118312E4,4.0060016E2,2.8104514E4,1.3779761E3,2.0509584E4,1.707405E4,6.9530156E3,9.7511755E2,2.4580973E4,8.0240806E3,9.311117E3,1.6542606E3],"tree_param":{"num_deleted":"0","num_feature":"10","num_nodes":"63","size_leaf_vector":"0"}},{"base_weights":[8.786144E-3,-2.810883E-3,3.374528E-2,-2.0813337E-2,1.3553671E-2,2.3284722E-2,6.0505923E-2,-4.1930314E-2,-2.7918362E-3,3.0064885E-2,-8.694832E-3,1.824045E-2,8.0067016E-2,5.4869715E-2,1.3352196E-1,-1.2335783E-2,-8.404509E-2,9.722946E-2,-5.1938356E-3,2.2373764E-2,9.6538566E-2,-3.7413558E-3,-8.958283E-2,2.6381388E-2,-4.7731414E-3,6.474899E-2,1.554135E-1,6.416748E-2,2.7450131E-2,1.1876976E-1,1.9980486E-1,-3.227963E-5,-1.413877E-1,-1.04081854E-1,-5.0328393E-2,1.7554241E-1,2.474793E-2,-6.83996E-2,1.5597335E-3,1.2250261E-1,1.8100113E-2,8.498686E-2,2.1242324E-1,-3.0993259E-2,1.6157525E-2,-2.513491E-1,-5.7091787E-2,1.2588783E-2,7.104538E-2,-1.5565553E-2,8.045158E-2,4.976475E-2,1.3234966E-1,9.021988E-2,1.9826078E-1,5.3223796E-2,9.997061E-2,2.2399822E-2,2.8033978E-1,1.23352595E-1,-0E0,2.3407385E-1,3.6676817E-2],"categories":[],"categories_nodes":[],"categories_segments":[],"categories_sizes":[],"default_left":[1,1,1,1,1,1,1,1,1,1,1,1,1,1,1,1,1,1,1,1,1,1,1,1,1,1,1,1,1,1,1,0,0,0,0,0,0,0,0,0,0,0,0,0,0,0,0,0,0,0,0,0,0,0,0,0,0,0,0,0,0,0,0],"id":14,"left_children":[1,3,5,7,9,11,13,15,17,19,21,23,25,27,29,31,33,35,37,39,41,43,45,47,49,51,53,55,57,59,61,-1,-1,-1,-1,-1,-1,-1,-1,-1,-1,-1,-1,-1,-1,-1,-1,-1,-1,-1,-1,-1,-1,-1,-1,-1,-1,-1,-1,-1,-1,-1,-1],"loss_changes":[2.7845068E2,1.9337602E2,8.495749E1,1.1873682E2,1.2634261E2,6.233896E1,3.418747E1,1.7872354E2,4.0056316E1,1.0025456E2,5.8078423E1,3.791095E1,1.9348763E1,1.9773819E1,4.153694E0,1.3346063E2,3.9192505E1,2.1064E1,7.07692E1,7.495889E1,2.5647232E1,7.484086E1,4.2303818E1,9.144058E1,4.796451E1,1.4057823E1,6.635193E0,2.2368225E1,2.4248283E1,3.2304611E0,4.2860184E0,0E0,0E0,0E0,0E0,0E0,0E0,0E0,0E0,0E0,0E0,0E0,0E0,0E0,0E0,0E0,0E0,0E0,0E0,0E0,0E0,0E0,0E0,0E0,0E0,0E0,0E0,0E0,0E0,0E0,0E0,0E0,0E0],"parents":[2147483647,0,0,1,1,2,2,3,3,4,4,5,5,6,6,7,7,8,8,9,9,10,10,11,11,12,12,13,13,14,14,15,15,16,16,17,17,18,18,19,19,20,20,21,21,22,22,23,23,24,24,25,25,26,26,27,27,28,28,29,29,30,30],"right_children":[2,4,6,8,10,12,14,16,18,20,22,24,26,28,30,32,34,36,38,40,42,44,46,48,50,52,54,56,58,60,62,-1,-1,-1,-1,-1,-1,-1,-1,-1,-1,-1,-1,-1,-1,-1,-1,-1,-1,-1,-1,-1,-1,-1,-1,-1,-1,-1,-1,-1,-1,-1,-1],"split_conditions":[2.5E0,5E-1,9.5E0,5.5E0,1.5E0,9.5E0,8.5E0,3.5E0,5E-1,4.5E0,2.25E1,4.5E0,1.55E1,4.5E0,1.45E1,2.05E1,1.35E1,8.5E0,4.5E0,5E-1,1.15E1,1.35E1,2.5E0,3.5E0,6.5E0,8.5E0,1.85E1,3.5E0,1.55E1,1.55E1,2.05E1,-9.683889E-6,-4.241631E-2,-3.1224558E-2,-1.5098519E-2,5.2662726E-2,7.4243792E-3,-2.051988E-2,4.6792006E-4,3.6750786E-2,5.430034E-3,2.5496058E-2,6.372698E-2,-9.297978E-3,4.8472574E-3,-7.540473E-2,-1.7127536E-2,3.776635E-3,2.1313613E-2,-4.669666E-3,2.4135474E-2,1.4929425E-2,3.9704897E-2,2.7065964E-2,5.947824E-2,1.596714E-2,2.9991183E-2,6.719947E-3,8.410194E-2,3.700578E-2,-0E0,7.0222154E-2,1.1003045E-2],"split_indices":[4,1,6,6,3,4,1,6,8,0,8,7,4,7,1,8,8,6,8,8,6,8,6,7,1,3,8,7,4,3,1,0,0,0,0,0,0,0,0,0,0,0,0,0,0,0,0,0,0,0,0,0,0,0,0,0,0,0,0,0,0,0,0],"split_type":[0,0,0,0,0,0,0,0,0,0,0,0,0,0,0,0,0,0,0,0,0,0,0,0,0,0,0,0,0,0,0,0,0,0,0,0,0,0,0,0,0,0,0,0,0,0,0,0,0,0,0,0,0,0,0,0,0,0,0,0,0,0,0],"sum_hessian":[9.6140425E5,6.562599E5,3.051444E5,3.1265147E5,3.4360838E5,2.1953644E5,8.560795E4,1.4382073E5,1.6883073E5,1.9737669E5,1.462317E5,2.0171519E5,1.782125E4,7.954485E4,6.0630986E3,8.454317E4,5.927756E4,3.9047415E3,1.6492598E5,1.7698347E5,2.0393217E4,1.3785847E5,8.373231E3,1.4918175E5,5.2533434E4,1.4872508E4,2.9487434E3,5.925129E4,2.0293566E4,5.029485E3,1.0336136E3,7.72244E4,7.3187715E3,3.7078043E4,2.2199516E4,1.8397129E3,2.0650286E3,1.5998972E4,1.4892702E5,7.190893E3,1.6979258E5,1.8589371E4,1.8038463E3,5.829634E4,7.9562125E4,1.3710485E3,7.002183E3,1.1407797E5,3.5103785E4,4.6686637E4,5.846798E3,1.2242053E4,2.6304548E3,1.2215625E3,1.7271808E3,4.54998E4,1.3751488E4,1.9918621E4,3.7494577E2,4.8749487E3,1.5453629E2,8.259518E2,2.0766188E2],"tree_param":{"num_deleted":"0","num_feature":"10","num_nodes":"63","size_leaf_vector":"0"}},{"base_weights":[6.1714547E-3,-2.0823667E-2,5.478168E-2,-1.0496089E-1,-7.588235E-3,6.828367E-2,2.0832118E-2,-1.908842E-1,-8.076809E-2,-2.3373019E-2,3.4887963E-3,1.0174577E-1,4.6388786E-2,-1.3405126E-1,5.7248723E-2,-2.2783698E-1,-7.2507323E-3,-1.1631497E-1,-3.825803E-2,-5.6766037E-2,-1.1714715E-2,-5.0080504E-2,8.541526E-3,1.3835575E-1,7.5282596E-2,1.9823007E-2,6.2032394E-2,-1.8163432E-1,-9.827929E-2,2.3891557E-2,1.07104614E-1,-9.492274E-2,-2.4961807E-1,1.9222937E-3,-7.878426E-1,-1.5220141E-1,-8.623302E-2,-8.84387E-2,-1.2220871E-2,-2.3291925E-2,-7.378104E-2,1.3617999E-2,-3.0714704E-2,-3.2846373E-1,-2.6653579E-2,2.4331085E-2,-7.212945E-3,1.229622E-1,2.032676E-1,5.025455E-2,9.075944E-2,-4.863079E-4,5.5541676E-2,6.7745806E-3,6.688843E-2,-1.470704E-1,-2.2057396E-1,-2.632712E-4,-1.1528415E-1,-3.4192738E-3,4.480344E-2,9.9524036E-2,1.7148279E-1],"categories":[],"categories_nodes":[],"categories_segments":[],"categories_sizes":[],"default_left":[1,1,1,1,1,1,1,1,1,1,1,1,1,1,1,1,1,1,1,1,1,1,1,1,1,1,1,1,1,1,1,0,0,0,0,0,0,0,0,0,0,0,0,0,0,0,0,0,0,0,0,0,0,0,0,0,0,0,0,0,0,0,0],"id":15,"left_children":[1,3,5,7,9,11,13,15,17,19,21,23,25,27,29,31,33,35,37,39,41,43,45,47,49,51,53,55,57,59,61,-1,-1,-1,-1,-1,-1,-1,-1,-1,-1,-1,-1,-1,-1,-1,-1,-1,-1,-1,-1,-1,-1,-1,-1,-1,-1,-1,-1,-1,-1,-1,-1],"loss_changes":[1.2616017E3,6.875497E2,1.5687122E2,1.7298218E2,9.348414E1,1.7904431E2,5.5120905E2,1.2350592E2,9.819974E1,8.543511E1,8.465683E1,9.278931E1,6.1262604E1,3.0083923E1,1.3101031E2,4.2333374E1,2.657089E1,3.7137604E1,3.8542515E1,3.1883072E1,7.879359E1,1.7371074E2,7.140599E1,3.875824E1,2.1063416E1,4.0323242E1,2.463855E1,8.592194E0,1.7164886E1,2.7370855E1,1.3956329E1,0E0,0E0,0E0,0E0,0E0,0E0,0E0,0E0,0E0,0E0,0E0,0E0,0E0,0E0,0E0,0E0,0E0,0E0,0E0,0E0,0E0,0E0,0E0,0E0,0E0,0E0,0E0,0E0,0E0,0E0,0E0,0E0],"parents":[2147483647,0,0,1,1,2,2,3,3,4,4,5,5,6,6,7,7,8,8,9,9,10,10,11,11,12,12,13,13,14,14,15,15,16,16,17,17,18,18,19,19,20,20,21,21,22,22,23,23,24,24,25,25,26,26,27,27,28,28,29,29,30,30],"right_children":[2,4,6,8,10,12,14,16,18,20,22,24,26,28,30,32,34,36,38,40,42,44,46,48,50,52,54,56,58,60,62,-1,-1,-1,-1,-1,-1,-1,-1,-1,-1,-1,-1,-1,-1,-1,-1,-1,-1,-1,-1,-1,-1,-1,-1,-1,-1,-1,-1,-1,-1,-1,-1],"split_conditions":[1.8321307E0,4.848851E-1,4.5E0,2.1637192E-1,2.5E0,1.5E0,2.1028478E0,5.5E0,3.5E0,9.626453E-1,1.5E0,5E-1,1.5E0,5.5E0,3.0451903E0,4.5E0,3.05E1,3.7433642E-1,4.5E0,5E-1,5E-1,3.5E0,4.5E0,3.0451903E0,1.5E0,3.0451903E0,1.5E0,5.5E0,6.5E0,5.5E0,9.5E0,-2.8476821E-2,-7.488542E-2,5.7668815E-4,-2.3635279E-1,-4.5660425E-2,-2.5869908E-2,-2.653161E-2,-3.6662614E-3,-6.987578E-3,-2.2134313E-2,4.0853997E-3,-9.2144115E-3,-9.853912E-2,-7.996074E-3,7.299326E-3,-2.1638835E-3,3.6888663E-2,6.0980283E-2,1.5076365E-2,2.7227834E-2,-1.4589238E-4,1.6662503E-2,2.0323743E-3,2.006653E-2,-4.412112E-2,-6.617219E-2,-7.8981364E-5,-3.458525E-2,-1.0257822E-3,1.3441033E-2,2.9857213E-2,5.144484E-2],"split_indices":[9,9,7,9,7,2,9,7,7,9,6,0,7,6,9,5,5,9,6,7,0,5,7,9,7,9,6,7,6,6,0,0,0,0,0,0,0,0,0,0,0,0,0,0,0,0,0,0,0,0,0,0,0,0,0,0,0,0,0,0,0,0,0],"split_type":[0,0,0,0,0,0,0,0,0,0,0,0,0,0,0,0,0,0,0,0,0,0,0,0,0,0,0,0,0,0,0,0,0,0,0,0,0,0,0,0,0,0,0,0,0,0,0,0,0,0,0,0,0,0,0,0,0,0,0,0,0,0,0],"sum_hessian":[9.6126744E5,6.1797156E5,3.4329588E5,8.3940695E4,5.340309E5,2.454969E5,9.779896E4,1.8390523E4,6.555017E4,2.204231E5,3.1360778E5,9.699854E4,1.4849838E5,1.8588127E4,7.921083E4,1.5284595E4,3.105928E3,3.562743E4,2.9922742E4,5.691763E4,1.6350547E5,2.6935785E4,2.8667197E5,4.060805E4,5.6390484E4,5.516748E4,9.333089E4,7.9093975E3,1.067873E4,4.7524996E4,3.1685834E4,2.188378E3,1.3096217E4,3.063875E3,4.2053135E1,1.6161079E4,1.946635E4,1.0149081E4,1.9773662E4,1.9291164E4,3.7626465E4,6.995079E4,9.355468E4,2.0715593E3,2.4864227E4,1.4335064E5,1.4332134E5,3.289482E4,7.713231E3,2.1684117E4,3.4706367E4,3.5072547E4,2.0094932E4,7.631022E3,8.569987E4,4.267481E3,3.6419165E3,1.6267269E3,9.052004E3,2.0495625E4,2.7029373E4,2.8426564E4,3.2592693E3],"tree_param":{"num_deleted":"0","num_feature":"10","num_nodes":"63","size_leaf_vector":"0"}},{"base_weights":[4.3063764E-3,-9.720872E-3,1.7656073E-2,4.3884303E-2,-1.4007995E-2,2.454131E-2,-5.96534E-2,8.285343E-2,7.5030164E-3,-4.1784678E-2,-6.074269E-3,1.0680336E-2,4.2743973E-2,-1.04321055E-1,-8.665649E-3,1.0077292E-1,1.1364579E-2,-4.8560176E-2,9.177128E-2,-1.0408952E-1,3.9583165E-2,1.060565E-2,-5.153798E-2,1.8766807E-2,-1.8686648E-2,9.534721E-2,1.2077395E-2,-1.6353257E-1,-7.405458E-2,3.3035453E-2,-1.18332006E-1,1.2052929E-2,1.1927557E-1,-8.213818E-2,4.8548818E-2,1.9181855E-2,-1.0441743E-1,-9.201065E-3,1.1221216E-1,-4.308148E-2,-1.8562323E-1,-5.2919697E-2,4.7625884E-2,4.6330567E-2,-2.4172828E-2,-9.6300215E-2,2.3047736E-2,2.7772817E-3,3.904808E-2,-1.20576635E-1,-9.113877E-3,5.6099307E-2,1.3934115E-1,2.6888726E-2,-4.117309E-2,-1.3938566E-1,-2.3679283E-1,-1.15245245E-1,-4.4543438E-2,-1.3465798E-2,8.093826E-2,-1.8670782E-1,-2.0365696E-2],"categories":[],"categories_nodes":[],"categories_segments":[],"categories_sizes":[],"default_left":[1,1,1,1,1,1,1,1,1,1,1,1,1,1,1,1,1,1,1,1,1,1,1,1,1,1,1,1,1,1,1,0,0,0,0,0,0,0,0,0,0,0,0,0,0,0,0,0,0,0,0,0,0,0,0,0,0,0,0,0,0,0,0],"id":16,"left_children":[1,3,5,7,9,11,13,15,17,19,21,23,25,27,29,31,33,35,37,39,41,43,45,47,49,51,53,55,57,59,61,-1,-1,-1,-1,-1,-1,-1,-1,-1,-1,-1,-1,-1,-1,-1,-1,-1,-1,-1,-1,-1,-1,-1,-1,-1,-1,-1,-1,-1,-1,-1,-1],"loss_changes":[1.7999602E2,1.0747952E2,2.6200665E2,4.85446E1,9.533555E1,1.13840546E2,9.097221E1,2.068422E1,8.5109924E1,4.881765E2,2.5622565E2,6.1027847E1,3.145937E2,3.699597E1,8.662556E1,2.1001083E1,1.1624541E1,4.114261E1,1.54616165E1,2.699986E2,3.0990242E1,3.068676E2,3.0321545E2,6.516112E1,5.326069E1,1.23047E2,9.732448E1,1.0580872E1,1.6390793E1,3.0695782E1,3.3867065E1,0E0,0E0,0E0,0E0,0E0,0E0,0E0,0E0,0E0,0E0,0E0,0E0,0E0,0E0,0E0,0E0,0E0,0E0,0E0,0E0,0E0,0E0,0E0,0E0,0E0,0E0,0E0,0E0,0E0,0E0,0E0,0E0],"parents":[2147483647,0,0,1,1,2,2,3,3,4,4,5,5,6,6,7,7,8,8,9,9,10,10,11,11,12,12,13,13,14,14,15,15,16,16,17,17,18,18,19,19,20,20,21,21,22,22,23,23,24,24,25,25,26,26,27,27,28,28,29,29,30,30],"right_children":[2,4,6,8,10,12,14,16,18,20,22,24,26,28,30,32,34,36,38,40,42,44,46,48,50,52,54,56,58,60,62,-1,-1,-1,-1,-1,-1,-1,-1,-1,-1,-1,-1,-1,-1,-1,-1,-1,-1,-1,-1,-1,-1,-1,-1,-1,-1,-1,-1,-1,-1,-1,-1],"split_conditions":[1.35E1,5E-1,2.25E1,1.5E0,4.5E0,3.5E0,3.5E0,2.45E1,4.5E0,4.5E0,4.5E0,2.05E1,4.5E0,4.5E0,5.5E0,2.5E0,1.5E0,1.5E0,5E-1,2.5E0,1.5E0,9.5E0,1.05E1,1.75E1,1.5E0,1.85E1,2.05E1,3.5E0,1.5E0,6.5E0,1.5E0,3.6158788E-3,3.5782672E-2,-2.4641456E-2,1.45646455E-2,5.7545565E-3,-3.132523E-2,-2.7603195E-3,3.366365E-2,-1.2924445E-2,-5.568697E-2,-1.587591E-2,1.4287766E-2,1.3899171E-2,-7.2518485E-3,-2.8890066E-2,6.914321E-3,8.331845E-4,1.1714424E-2,-3.6172993E-2,-2.7341633E-3,1.6829792E-2,4.1802347E-2,8.066618E-3,-1.2351927E-2,-4.18157E-2,-7.103785E-2,-3.4573574E-2,-1.3363032E-2,-4.0397397E-3,2.4281478E-2,-5.601235E-2,-6.1097094E-3],"split_indices":[8,8,8,3,8,7,7,5,7,7,7,8,7,6,7,6,7,4,4,8,6,8,8,8,6,8,8,6,1,6,4,0,0,0,0,0,0,0,0,0,0,0,0,0,0,0,0,0,0,0,0,0,0,0,0,0,0,0,0,0,0,0,0],"split_type":[0,0,0,0,0,0,0,0,0,0,0,0,0,0,0,0,0,0,0,0,0,0,0,0,0,0,0,0,0,0,0,0,0,0,0,0,0,0,0,0,0,0,0,0,0,0,0,0,0,0,0,0,0,0,0,0,0,0,0,0,0,0,0],"sum_hessian":[9.609766E5,4.6839594E5,4.925807E5,3.4590637E4,4.338053E5,4.523646E5,4.0216086E4,1.6627717E4,1.7962918E4,9.622288E4,3.375824E5,2.5698175E5,1.9538286E5,2.1378557E4,1.883753E4,1.3233297E4,3.3944202E3,1.0747695E4,7.2152236E3,5.4533164E4,4.1689723E4,2.4688427E5,9.069816E4,2.0164467E5,5.5337086E4,7.1888695E4,1.2349416E5,7.16847E3,1.4210087E4,1.3612039E4,5.2254897E3,2.3351562E3,1.0898141E4,9.233817E2,2.4710386E3,4.8129194E3,5.934776E3,1.1695325E3,6.045691E3,3.1232365E4,2.3300799E4,3.2796448E3,3.8410074E4,1.2186289E5,1.25021375E5,5.6727117E4,3.397104E4,1.1290442E5,8.874024E4,4.702183E3,5.0634902E4,3.8060984E4,3.382771E4,9.670106E4,2.6793092E4,5.450077E3,1.7183931E3,5.852327E3,8.35776E3,6.8491685E3,6.762871E3,3.0439268E3,2.1815632E3],"tree_param":{"num_deleted":"0","num_feature":"10","num_nodes":"63","size_leaf_vector":"0"}},{"base_weights":[3.0049398E-3,-1.6015975E-2,3.726611E-2,-7.5038314E-2,-6.7380993E-3,6.388135E-2,2.0777348E-2,-9.981233E-2,-2.0757578E-2,1.8508181E-2,-2.4228044E-2,7.917365E-2,7.378201E-3,1.14805065E-2,3.69594E-2,-1.6806106E-1,-8.0709666E-2,1.5239102E-2,-1.08416535E-1,-1.0538609E-2,5.755852E-2,-4.6648562E-2,-9.656574E-3,9.593588E-2,3.8900312E-2,-4.0416926E-2,7.576854E-2,2.0465268E-2,-6.820026E-2,2.4167689E-2,6.455272E-2,-1.9780396E-1,-2.1535397E-2,-1.0447233E-1,-5.2340258E-2,-6.314244E-2,4.3970656E-2,-1.633158E-1,-4.5888342E-2,6.0098037E-2,-1.8826438E-2,3.3707112E-2,8.4344395E-2,-1.47305485E-2,-5.8732104E-2,-4.215213E-2,3.4266447E-3,8.4284E-2,1.3492522E-1,-4.7500554E-2,7.145304E-2,-7.363581E-2,4.5963366E-2,-8.718747E-3,1.08832695E-1,2.6323192E-2,-9.477431E-3,-1.8501109E-1,-3.9939485E-2,-2.5685964E-2,2.9681906E-2,2.177801E-2,8.5286215E-2],"categories":[],"categories_nodes":[],"categories_segments":[],"categories_sizes":[],"default_left":[1,1,1,1,1,1,1,1,1,1,1,1,1,1,1,1,1,1,1,1,1,1,1,1,1,1,1,1,1,1,1,0,0,0,0,0,0,0,0,0,0,0,0,0,0,0,0,0,0,0,0,0,0,0,0,0,0,0,0,0,0,0,0],"id":17,"left_children":[1,3,5,7,9,11,13,15,17,19,21,23,25,27,29,31,33,35,37,39,41,43,45,47,49,51,53,55,57,59,61,-1,-1,-1,-1,-1,-1,-1,-1,-1,-1,-1,-1,-1,-1,-1,-1,-1,-1,-1,-1,-1,-1,-1,-1,-1,-1,-1,-1,-1,-1,-1,-1],"loss_changes":[6.2621204E2,3.37786E2,1.500918E2,1.1205615E2,2.3575485E2,1.1281018E2,3.1621643E1,7.356329E1,8.362558E1,2.4793097E2,1.0276268E2,6.885895E1,9.173411E1,9.627246E1,2.673349E1,5.329773E1,2.9453644E1,4.184831E1,2.5315422E1,7.303012E1,5.8903107E1,4.7469116E1,8.157332E1,3.1813904E1,8.563828E1,4.73214E1,3.28656E1,2.1358463E1,4.3657684E1,1.4547266E1,2.0953606E1,0E0,0E0,0E0,0E0,0E0,0E0,0E0,0E0,0E0,0E0,0E0,0E0,0E0,0E0,0E0,0E0,0E0,0E0,0E0,0E0,0E0,0E0,0E0,0E0,0E0,0E0,0E0,0E0,0E0,0E0,0E0,0E0],"parents":[2147483647,0,0,1,1,2,2,3,3,4,4,5,5,6,6,7,7,8,8,9,9,10,10,11,11,12,12,13,13,14,14,15,15,16,16,17,17,18,18,19,19,20,20,21,21,22,22,23,23,24,24,25,25,26,26,27,27,28,28,29,29,30,30],"right_children":[2,4,6,8,10,12,14,16,18,20,22,24,26,28,30,32,34,36,38,40,42,44,46,48,50,52,54,56,58,60,62,-1,-1,-1,-1,-1,-1,-1,-1,-1,-1,-1,-1,-1,-1,-1,-1,-1,-1,-1,-1,-1,-1,-1,-1,-1,-1,-1,-1,-1,-1,-1,-1],"split_conditions":[1.8321307E0,4.848851E-1,1.5E0,1.75E1,5E-1,1.65E1,3.0451903E0,2.1637192E-1,2.15E1,1.25E1,1.35E1,4.5E0,2.355929E0,5.5E0,4.5E0,5.5E0,3.5E0,1.5E0,3.5E0,1.5E0,1.2069247E0,3.5E0,1.2069247E0,3.0451903E0,2.1028478E0,3.5E0,1.5E0,4.5E0,2.1028478E0,4.5E0,9.5E0,-5.934119E-2,-6.460619E-3,-3.13417E-2,-1.5702078E-2,-1.8942732E-2,1.3191197E-2,-4.8994742E-2,-1.3766503E-2,1.8029412E-2,-5.6479317E-3,1.0112134E-2,2.530332E-2,-4.4191647E-3,-1.7619632E-2,-1.26456395E-2,1.0279935E-3,2.5285201E-2,4.0477566E-2,-1.4250167E-2,2.1435913E-2,-2.2090744E-2,1.378901E-2,-2.615624E-3,3.264981E-2,7.896958E-3,-2.8432293E-3,-5.5503327E-2,-1.1981846E-2,-7.7057895E-3,8.904573E-3,6.5334034E-3,2.5585866E-2],"split_indices":[9,9,3,8,3,8,9,9,8,8,8,7,9,7,7,7,7,7,7,8,9,8,9,9,9,1,7,7,9,8,8,0,0,0,0,0,0,0,0,0,0,0,0,0,0,0,0,0,0,0,0,0,0,0,0,0,0,0,0,0,0,0,0],"split_type":[0,0,0,0,0,0,0,0,0,0,0,0,0,0,0,0,0,0,0,0,0,0,0,0,0,0,0,0,0,0,0,0,0,0,0,0,0,0,0,0,0,0,0,0,0,0,0,0,0,0,0,0,0,0,0,0,0,0,0,0,0,0,0],"sum_hessian":[9.6074006E5,6.176672E5,3.4307284E5,8.3822195E4,5.33845E5,1.3110842E5,2.119644E5,5.748402E4,2.6338174E4,2.1834916E5,3.1549584E5,1.0310566E5,2.8002768E4,1.3483892E5,7.712549E4,1.2506367E4,4.4977652E4,1.8627127E4,7.7110464E3,1.2513211E5,9.3217055E4,1.24127055E5,1.913688E5,7.2706445E4,3.0399209E4,1.6436193E4,1.1566575E4,1.2123795E5,1.360096E4,5.283394E4,2.4291553E4,1.0364596E4,2.141771E3,2.4369129E4,2.0608523E4,4.9447915E3,1.3682335E4,4.0583096E3,3.6527368E3,1.3069731E4,1.1206238E5,4.9419332E4,4.379772E4,3.421291E4,8.991415E4,5.505174E4,1.3631706E5,5.6088695E4,1.6617754E4,8.272658E3,2.212655E4,1.19171045E4,4.5190884E3,3.2067952E3,8.35978E3,1.0155397E5,1.9683986E4,2.6105518E3,1.0990408E4,5.1621562E3,4.7671785E4,8.017724E3,1.6273828E4],"tree_param":{"num_deleted":"0","num_feature":"10","num_nodes":"63","size_leaf_vector":"0"}},{"base_weights":[2.0948092E-3,-1.6563188E-2,2.0463467E-2,-3.0340128E-2,1.3823838E-2,4.359092E-2,4.8967046E-3,-5.848873E-2,-1.4729212E-2,2.2944815E-2,-4.402628E-2,3.378954E-2,1.1094511E-1,9.682022E-3,-3.5346784E-2,2.0413708E-2,-6.723876E-2,3.0093722E-3,-3.3062663E-2,4.8040587E-2,3.6859629E-3,-1.3204728E-1,-2.5451118E-2,4.2035937E-2,-3.623879E-2,1.5645276E-1,7.129309E-2,-5.251799E-3,2.1059945E-2,-1.5673357E-1,-2.0914115E-2,1.6918328E-2,7.670694E-1,-1.064717E-1,-5.1682256E-2,1.5269149E-2,-4.0525887E-2,-3.7726693E-2,1.6816312E-2,-6.0066454E-2,5.757031E-2,-2.1392802E-2,2.4865726E-2,-1.7395133E-1,8.699122E-2,4.8038412E-2,-4.9329743E-2,1.2351848E-2,6.044835E-2,-5.1532418E-2,1.1377764E-1,1.20125666E-1,1.9098552E-1,2.0109046E-2,9.9251136E-2,1.9118868E-2,-2.0092005E-2,8.49058E-3,3.71068E-2,-2.259475E-1,-1.1967316E-1,-3.1184465E-2,3.919894E-2],"categories":[],"categories_nodes":[],"categories_segments":[],"categories_sizes":[],"default_left":[1,1,1,1,1,1,1,1,1,1,1,1,1,1,1,1,1,1,1,1,1,1,1,1,1,1,1,1,1,1,1,0,0,0,0,0,0,0,0,0,0,0,0,0,0,0,0,0,0,0,0,0,0,0,0,0,0,0,0,0,0,0,0],"id":18,"left_children":[1,3,5,7,9,11,13,15,17,19,21,23,25,27,29,31,33,35,37,39,41,43,45,47,49,51,53,55,57,59,61,-1,-1,-1,-1,-1,-1,-1,-1,-1,-1,-1,-1,-1,-1,-1,-1,-1,-1,-1,-1,-1,-1,-1,-1,-1,-1,-1,-1,-1,-1,-1,-1],"loss_changes":[3.292209E2,1.9951884E2,1.7404475E2,1.4368018E2,7.823028E1,1.27695496E2,5.5616707E1,8.092993E1,6.879929E1,6.174433E1,3.205949E1,9.8198395E1,4.3224304E1,4.4075893E1,5.2711845E1,2.5955652E1,6.3358856E1,5.7030453E1,2.4294762E1,5.727214E1,3.8656345E1,3.2230423E1,2.9285885E1,8.275745E1,4.0591114E1,1.2584686E1,1.8289795E1,4.0418697E1,2.9428024E1,6.321518E0,1.6893358E1,0E0,0E0,0E0,0E0,0E0,0E0,0E0,0E0,0E0,0E0,0E0,0E0,0E0,0E0,0E0,0E0,0E0,0E0,0E0,0E0,0E0,0E0,0E0,0E0,0E0,0E0,0E0,0E0,0E0,0E0,0E0,0E0],"parents":[2147483647,0,0,1,1,2,2,3,3,4,4,5,5,6,6,7,7,8,8,9,9,10,10,11,11,12,12,13,13,14,14,15,15,16,16,17,17,18,18,19,19,20,20,21,21,22,22,23,23,24,24,25,25,26,26,27,27,28,28,29,29,30,30],"right_children":[2,4,6,8,10,12,14,16,18,20,22,24,26,28,30,32,34,36,38,40,42,44,46,48,50,52,54,56,58,60,62,-1,-1,-1,-1,-1,-1,-1,-1,-1,-1,-1,-1,-1,-1,-1,-1,-1,-1,-1,-1,-1,-1,-1,-1,-1,-1,-1,-1,-1,-1,-1,-1],"split_conditions":[1.6849091E0,1.75E1,1.5E0,8.720287E-1,2.25E1,3.0451903E0,2.15E1,1.5E0,5E-1,5E-1,4.848851E-1,2.05E1,7.5E0,1.35E1,1.74002E0,1.05E1,3.7433642E-1,1.5E0,2.85E1,2.1637192E-1,1.2069247E0,1.5E0,8.720287E-1,7.5E0,6.5E0,4.5E0,1.15E1,5E-1,2.355929E0,1.5E0,8.5E0,5.0754985E-3,2.3012082E-1,-3.194151E-2,-1.5504678E-2,4.580745E-3,-1.2157767E-2,-1.1318008E-2,5.044894E-3,-1.8019937E-2,1.7271094E-2,-6.4178407E-3,7.4597183E-3,-5.21854E-2,2.6097367E-2,1.4411524E-2,-1.4798923E-2,3.7055546E-3,1.8134505E-2,-1.5459726E-2,3.4133293E-2,3.6037702E-2,5.7295658E-2,6.032714E-3,2.9775342E-2,5.7356604E-3,-6.0276017E-3,2.5471742E-3,1.1132041E-2,-6.778425E-2,-3.590195E-2,-9.35534E-3,1.1759683E-2],"split_indices":[9,8,4,9,8,9,8,8,0,0,9,8,8,8,9,4,9,2,5,9,9,4,9,8,2,8,8,0,9,1,2,0,0,0,0,0,0,0,0,0,0,0,0,0,0,0,0,0,0,0,0,0,0,0,0,0,0,0,0,0,0,0,0],"split_type":[0,0,0,0,0,0,0,0,0,0,0,0,0,0,0,0,0,0,0,0,0,0,0,0,0,0,0,0,0,0,0,0,0,0,0,0,0,0,0,0,0,0,0,0,0,0,0,0,0,0,0,0,0,0,0,0,0,0,0,0,0,0,0],"sum_hessian":[9.6054056E5,4.7636878E5,4.8417178E5,3.278902E5,1.4847861E5,1.9464045E5,2.8953134E5,1.1684598E5,2.1104422E5,1.2833955E5,2.0139062E4,1.699871E5,2.4653352E4,2.5888498E5,3.0646357E4,1.1601436E4,1.0524454E5,1.07110234E5,1.03933984E5,5.5600598E4,7.273895E4,3.4567183E3,1.6682344E4,1.5214923E5,1.7837855E4,1.141313E4,1.3240222E4,1.117402E5,1.4714478E5,3.21505E3,2.7431309E4,1.1555728E4,4.5707928E1,2.9780303E4,7.5464234E4,8.367411E4,2.3436123E4,9.514754E4,8.786443E3,4.457004E3,5.1143594E4,3.3185094E4,3.955386E4,2.9228635E3,5.3385455E2,4.0344534E3,1.2647891E4,5.836111E4,9.378813E4,1.6221456E4,1.6163989E3,5.641862E3,5.771268E3,4.747395E3,8.492827E3,4.215013E4,6.959008E4,8.2706086E4,6.4438695E4,1.0676348E3,2.1474153E3,2.3507084E4,3.9242231E3],"tree_param":{"num_deleted":"0","num_feature":"10","num_nodes":"63","size_leaf_vector":"0"}},{"base_weights":[1.4757373E-3,-6.8772174E-3,2.2905027E-2,-4.9171854E-2,-3.6799891E-3,6.1970327E-2,1.4003679E-2,-7.289445E-2,1.4063584E-3,1.1797254E-2,-1.4481674E-2,9.172221E-2,3.8379066E-2,1.2085443E-2,7.3721565E-2,-1.8197763E-1,-5.008462E-2,1.3496085E-1,-3.1128906E-2,-3.7719697E-2,2.8685087E-2,-3.9949484E-2,-8.519252E-3,7.565504E-2,1.4067481E-1,1.8390968E-2,6.810799E-2,3.500363E-2,7.7356338E-3,8.227102E-2,-9.187031E-2,1.6821584E-1,-2.3127086E-1,-8.3599314E-2,-3.0350594E-2,-4.184386E-2,2.3374681E-1,-1.9367383E-1,-1.55341E-3,-9.3160994E-2,2.874714E-2,3.950671E-2,-2.944285E-2,-5.9196103E-2,-1.8203953E-2,1.8652523E-3,-3.6955368E-2,2.2395721E-1,7.100924E-2,1.6264227E-1,4.5813505E-2,4.1285418E-2,-3.0676095E-2,5.8414314E-2,1.7963183E-1,1.2068094E-1,-3.843306E-3,-1.5978483E-2,1.7543849E-2,6.1807163E-2,1.5517849E-1,-3.6609802E-1,-3.2857776E-2],"categories":[],"categories_nodes":[],"categories_segments":[],"categories_sizes":[],"default_left":[1,1,1,1,1,1,1,1,1,1,1,1,1,1,1,1,1,1,1,1,1,1,1,1,1,1,1,1,1,1,1,0,0,0,0,0,0,0,0,0,0,0,0,0,0,0,0,0,0,0,0,0,0,0,0,0,0,0,0,0,0,0,0],"id":19,"left_children":[1,3,5,7,9,11,13,15,17,19,21,23,25,27,29,31,33,35,37,39,41,43,45,47,49,51,53,55,57,59,61,-1,-1,-1,-1,-1,-1,-1,-1,-1,-1,-1,-1,-1,-1,-1,-1,-1,-1,-1,-1,-1,-1,-1,-1,-1,-1,-1,-1,-1,-1,-1,-1],"loss_changes":[1.7199828E2,9.313063E1,9.331174E1,5.8505836E1,1.0741561E2,3.430902E1,2.4687794E1,8.0932816E1,6.745116E1,2.2059438E2,5.7219177E1,1.6077454E1,1.6125374E1,2.0988264E1,9.505554E0,9.830635E1,1.7474113E1,5.4304047E1,5.8265293E1,2.4732553E2,1.23872925E2,2.9557053E1,9.0828514E1,9.816559E0,9.979317E0,1.8953247E1,1.0703709E1,1.1300459E2,4.167519E1,8.415932E0,2.650116E0,0E0,0E0,0E0,0E0,0E0,0E0,0E0,0E0,0E0,0E0,0E0,0E0,0E0,0E0,0E0,0E0,0E0,0E0,0E0,0E0,0E0,0E0,0E0,0E0,0E0,0E0,0E0,0E0,0E0,0E0,0E0,0E0],"parents":[2147483647,0,0,1,1,2,2,3,3,4,4,5,5,6,6,7,7,8,8,9,9,10,10,11,11,12,12,13,13,14,14,15,15,16,16,17,17,18,18,19,19,20,20,21,21,22,22,23,23,24,24,25,25,26,26,27,27,28,28,29,29,30,30],"right_children":[2,4,6,8,10,12,14,16,18,20,22,24,26,28,30,32,34,36,38,40,42,44,46,48,50,52,54,56,58,60,62,-1,-1,-1,-1,-1,-1,-1,-1,-1,-1,-1,-1,-1,-1,-1,-1,-1,-1,-1,-1,-1,-1,-1,-1,-1,-1,-1,-1,-1,-1,-1,-1],"split_conditions":[2.1028478E0,3.7433642E-1,5E-1,4.5E0,5E-1,5E-1,1.15E1,6.5E0,4.5E0,6.5E0,9.626453E-1,3.0451903E0,1.25E1,6.5E0,2.25E1,3.5E0,2.1637192E-1,2.1637192E-1,8.5E0,3.5E0,5.5E0,3.5E0,4.5E0,1.5E0,8.5E0,8.5E0,2.85E1,2.355929E0,2.355929E0,1.65E1,2.5E0,5.0464753E-2,-6.938126E-2,-2.5079796E-2,-9.1051785E-3,-1.2553159E-2,7.0124045E-2,-5.8102153E-2,-4.6602302E-4,-2.79483E-2,8.624142E-3,1.1852014E-2,-8.832855E-3,-1.7758831E-2,-5.461186E-3,5.595757E-4,-1.1086611E-2,6.718717E-2,2.1302773E-2,4.8792683E-2,1.3744052E-2,1.2385626E-2,-9.202829E-3,1.7524295E-2,5.388955E-2,3.6204286E-2,-1.1529919E-3,-4.793545E-3,5.263155E-3,1.854215E-2,4.655355E-2,-1.0982941E-1,-9.857333E-3],"split_indices":[9,9,3,7,3,2,1,8,8,8,9,9,8,8,1,5,9,9,8,7,7,7,7,8,8,8,5,9,9,1,3,0,0,0,0,0,0,0,0,0,0,0,0,0,0,0,0,0,0,0,0,0,0,0,0,0,0,0,0,0,0,0,0],"split_type":[0,0,0,0,0,0,0,0,0,0,0,0,0,0,0,0,0,0,0,0,0,0,0,0,0,0,0,0,0,0,0,0,0,0,0,0,0,0,0,0,0,0,0,0,0,0,0,0,0,0,0,0,0,0,0,0,0,0,0,0,0,0,0],"sum_hessian":[9.604011E5,6.9085556E5,2.695456E5,4.843233E4,6.4242325E5,4.9904805E4,2.1964078E5,3.3042688E4,1.5389642E4,2.6385216E5,3.7857106E5,2.1966254E4,2.793855E4,2.1289553E5,6.7452485E3,5.6715576E3,2.737113E4,3.0471697E3,1.2342472E4,6.701882E4,1.9683334E5,7.164015E4,3.069309E5,1.6624635E4,5.341619E3,1.6817805E4,1.1120745E4,3.375842E4,1.7913711E5,6.4461533E3,2.9909518E2,6.857562E2,4.9858013E3,1.0039279E4,1.7331852E4,1.072513E3,1.9746567E3,1.8705488E3,1.0471923E4,3.6584945E4,3.0433879E4,1.660204E5,3.0812926E4,3.78686E4,3.3771543E4,2.24686E5,8.224492E4,4.6758078E2,1.6157055E4,4.289571E3,1.0520485E3,1.1543783E4,5.274022E3,1.0278202E4,8.42543E2,1.0574883E4,2.3183541E4,5.224902E4,1.2688809E5,5.0937207E3,1.3524326E3,3.553976E1,2.6355545E2],"tree_param":{"num_deleted":"0","num_feature":"10","num_nodes":"63","size_leaf_vector":"0"}},{"base_weights":[1.0312822E-3,-6.468229E-3,2.3475738E-2,-3.31404E-2,-2.5251852E-3,-1.0248654E-3,3.6944605E-2,-4.2167332E-2,1.5216192E-2,1.0142129E-2,-8.620278E-3,-1.8517966E-3,4.8269033E-1,7.114305E-2,2.6747383E-2,-9.1280535E-2,-3.563578E-2,-1.8621126E-2,8.522486E-2,2.693979E-2,-7.5341957E-3,-3.3202704E-2,-5.4893857E-3,-1.9231282E-2,1.905189E-2,1.0230067E-2,8.031621E-1,9.436682E-2,2.9688476E-2,3.2170992E-2,-1.2674294E-2,-3.323205E-2,-1.476335E-1,-5.047362E-2,-9.251205E-3,-2.2480326E-2,5.11359E-1,-5.2722697E-3,1.1124595E-1,5.5244163E-2,1.1680484E-2,-1.2634123E-2,5.6772184E-2,-6.517084E-2,-2.4160797E-2,9.36153E-3,-1.1076505E-2,-1.0070405E-2,-5.9577085E-2,5.0326426E-2,-1.5793674E-2,2.7953234E-1,-1.5542322E-2,9.8960066E-1,-0E0,1.2226113E-1,4.2575512E-2,7.2380476E-2,2.7786791E-3,-2.9449698E-3,3.838855E-2,-5.617914E-2,5.0949764E-2],"categories":[],"categories_nodes":[],"categories_segments":[],"categories_sizes":[],"default_left":[1,1,1,1,1,1,1,1,1,1,1,1,1,1,1,1,1,1,1,1,1,1,1,1,1,1,1,1,1,1,1,0,0,0,0,0,0,0,0,0,0,0,0,0,0,0,0,0,0,0,0,0,0,0,0,0,0,0,0,0,0,0,0],"id":20,"left_children":[1,3,5,7,9,11,13,15,17,19,21,23,25,27,29,31,33,35,37,39,41,43,45,47,49,51,53,55,57,59,61,-1,-1,-1,-1,-1,-1,-1,-1,-1,-1,-1,-1,-1,-1,-1,-1,-1,-1,-1,-1,-1,-1,-1,-1,-1,-1,-1,-1,-1,-1,-1,-1],"loss_changes":[1.6172919E2,7.548251E1,7.962274E1,4.0525604E1,4.840841E1,3.144992E1,5.3670486E1,2.4334045E1,3.4612183E1,6.0507133E1,3.2394714E1,3.0918205E1,1.5824614E1,3.357013E1,2.573722E1,2.8641586E1,2.6677452E1,1.7148392E1,1.1800503E1,4.4749397E1,3.2212597E1,1.3284847E1,3.1208164E1,1.6844193E1,4.2136715E1,1.8876698E0,1.3806267E1,3.1911087E1,1.4363305E1,2.3228943E1,3.9822235E1,0E0,0E0,0E0,0E0,0E0,0E0,0E0,0E0,0E0,0E0,0E0,0E0,0E0,0E0,0E0,0E0,0E0,0E0,0E0,0E0,0E0,0E0,0E0,0E0,0E0,0E0,0E0,0E0,0E0,0E0,0E0,0E0],"parents":[2147483647,0,0,1,1,2,2,3,3,4,4,5,5,6,6,7,7,8,8,9,9,10,10,11,11,12,12,13,13,14,14,15,15,16,16,17,17,18,18,19,19,20,20,21,21,22,22,23,23,24,24,25,25,26,26,27,27,28,28,29,29,30,30],"right_children":[2,4,6,8,10,12,14,16,18,20,22,24,26,28,30,32,34,36,38,40,42,44,46,48,50,52,54,56,58,60,62,-1,-1,-1,-1,-1,-1,-1,-1,-1,-1,-1,-1,-1,-1,-1,-1,-1,-1,-1,-1,-1,-1,-1,-1,-1,-1,-1,-1,-1,-1,-1,-1],"split_conditions":[9.5E0,6.771257E-1,1.4607098E0,5.5E0,5E-1,1.45E1,5E-1,1.5E0,4.848851E-1,5E-1,1.5E0,3.5E0,1.15E1,1.5E0,5.5E0,2.5E0,3.5E0,7.5E0,2.5E0,3.5E0,3.0451903E0,5E-1,3.5E0,1.2069247E0,5E-1,9.626453E-1,5.5E0,1.15E1,5E-1,5E-1,2.355929E0,-9.969614E-3,-4.429005E-2,-1.5142086E-2,-2.7753618E-3,-6.744098E-3,1.534077E-1,-1.581681E-3,3.3373788E-2,1.657325E-2,3.5041452E-3,-3.790237E-3,1.7031657E-2,-1.9551253E-2,-7.248239E-3,2.808459E-3,-3.3229517E-3,-3.0211217E-3,-1.7873127E-2,1.5097928E-2,-4.738102E-3,8.3859704E-2,-4.6626967E-3,2.9688022E-1,-0E0,3.667834E-2,1.2772654E-2,2.1714143E-2,8.336038E-4,-8.8349095E-4,1.1516565E-2,-1.6853742E-2,1.5284929E-2],"split_indices":[6,9,9,7,3,0,3,6,9,0,6,7,6,4,7,7,7,4,6,6,9,4,6,9,3,9,7,6,0,7,9,0,0,0,0,0,0,0,0,0,0,0,0,0,0,0,0,0,0,0,0,0,0,0,0,0,0,0,0,0,0,0,0],"split_type":[0,0,0,0,0,0,0,0,0,0,0,0,0,0,0,0,0,0,0,0,0,0,0,0,0,0,0,0,0,0,0,0,0,0,0,0,0,0,0,0,0,0,0,0,0,0,0,0,0,0,0,0,0,0,0,0,0,0,0,0,0,0,0],"sum_hessian":[9.602718E5,7.195872E5,2.4068466E5,9.249763E4,6.2708956E5,8.5233266E4,1.5545139E5,7.804289E4,1.4454736E4,2.0342086E5,4.236687E5,8.510015E4,1.3311575E2,3.5580305E4,1.19871086E5,9.060269E3,6.8982625E4,9.692316E3,4.762419E3,1.0446206E5,9.895879E4,4.7664113E4,3.760046E5,4.661078E4,3.8489367E4,6.1153465E1,7.196228E1,2.271879E4,1.2861515E4,1.05496625E5,1.4374457E4,4.511853E3,4.5484155E3,4.40186E4,2.4964023E4,9.633503E3,5.881374E1,1.01652856E3,3.7458906E3,3.646337E4,6.7998695E4,9.176735E4,7.191435E3,1.0373516E4,3.7290598E4,1.025186E5,2.7348597E5,3.8097883E4,8.512896E3,2.0367004E4,1.8122365E4,2.3120626E1,3.803284E1,6.115808E1,1.0804198E1,1.4696067E4,8.022722E3,4.892909E3,7.968606E3,1.5736257E4,8.9760375E4,8.588427E3,5.7860303E3],"tree_param":{"num_deleted":"0","num_feature":"10","num_nodes":"63","size_leaf_vector":"0"}},{"base_weights":[7.192443E-4,-1.0863044E-2,9.592184E-3,2.4640483E-3,-3.174672E-2,-8.721968E-3,1.9635407E-2,-4.7308218E-2,9.971386E-3,-3.9903443E-2,-4.2708414E-3,-2.3477048E-2,1.6776228E-2,5.6508273E-2,8.949087E-3,-7.728439E-2,6.442482E-2,1.9779326E-2,-4.0569298E-2,-5.7078805E-2,-2.3463564E-2,-1.1296589E-2,3.9045446E-2,-3.8621567E-2,9.350797E-3,-1.1352094E-2,3.6201537E-2,8.3184555E-2,3.400697E-2,2.3735195E-2,3.7799802E-4,7.1030445E-2,-1.0399318E-1,1.00120805E-1,1.079581E-2,4.2561203E-2,5.407554E-3,-2.9148124E-2,-1.179732E-1,-5.3561434E-2,-1.5506427E-1,-2.9102223E-2,5.429449E-2,-3.271303E-2,3.0610561E-3,-8.437896E-3,5.429575E-2,1.1023935E-2,-5.1401284E-2,6.0347848E-2,-2.3703156E-2,3.6579422E-3,-5.309868E-2,5.766456E-2,1.3028337E-2,5.19014E-2,1.2341184E-1,1.106222E-2,6.31252E-2,1.2639892E-1,2.065486E-2,-6.941929E-3,1.9690137E-2],"categories":[],"categories_nodes":[],"categories_segments":[],"categories_sizes":[],"default_left":[1,1,1,1,1,1,1,1,1,1,1,1,1,1,1,1,1,1,1,1,1,1,1,1,1,1,1,1,1,1,1,0,0,0,0,0,0,0,0,0,0,0,0,0,0,0,0,0,0,0,0,0,0,0,0,0,0,0,0,0,0,0,0],"id":21,"left_children":[1,3,5,7,9,11,13,15,17,19,21,23,25,27,29,31,33,35,37,39,41,43,45,47,49,51,53,55,57,59,61,-1,-1,-1,-1,-1,-1,-1,-1,-1,-1,-1,-1,-1,-1,-1,-1,-1,-1,-1,-1,-1,-1,-1,-1,-1,-1,-1,-1,-1,-1,-1,-1],"loss_changes":[9.867175E1,1.1600867E2,1.0011232E2,9.467817E1,3.613286E1,7.2445595E1,1.3814348E2,1.1122492E2,1.0931038E2,3.485121E1,1.1202457E1,6.08394E1,3.8609665E1,4.6691345E1,3.4419575E1,1.0399463E2,1.2753973E1,6.0295464E1,3.0823036E1,1.9857285E1,2.793861E1,1.0068457E1,3.9443302E0,5.328457E1,6.49592E1,1.8223099E1,2.0382683E1,4.4298187E1,2.8248951E1,3.0752636E1,2.4501793E1,0E0,0E0,0E0,0E0,0E0,0E0,0E0,0E0,0E0,0E0,0E0,0E0,0E0,0E0,0E0,0E0,0E0,0E0,0E0,0E0,0E0,0E0,0E0,0E0,0E0,0E0,0E0,0E0,0E0,0E0,0E0,0E0],"parents":[2147483647,0,0,1,1,2,2,3,3,4,4,5,5,6,6,7,7,8,8,9,9,10,10,11,11,12,12,13,13,14,14,15,15,16,16,17,17,18,18,19,19,20,20,21,21,22,22,23,23,24,24,25,25,26,26,27,27,28,28,29,29,30,30],"right_children":[2,4,6,8,10,12,14,16,18,20,22,24,26,28,30,32,34,36,38,40,42,44,46,48,50,52,54,56,58,60,62,-1,-1,-1,-1,-1,-1,-1,-1,-1,-1,-1,-1,-1,-1,-1,-1,-1,-1,-1,-1,-1,-1,-1,-1,-1,-1,-1,-1,-1,-1,-1,-1],"split_conditions":[5.5E0,3.5E0,1.4607098E0,4.5E0,2.5E0,1.65E1,5E-1,5.5E0,2.05E1,4.5E0,7.5E0,4.5E0,2.5E0,5E-1,1.5E0,5E-1,1.74002E0,5E-1,5.5E0,2.25E1,5.5E0,2.5E0,1.74002E0,5E-1,6.5E0,1.5E0,8.720287E-1,7.5E0,1.25E1,5E-1,5.5E0,2.1309134E-2,-3.1197954E-2,3.0036243E-2,3.2387432E-3,1.2768362E-2,1.6222663E-3,-8.744437E-3,-3.539196E-2,-1.606843E-2,-4.6519283E-2,-8.730668E-3,1.6288348E-2,-9.813909E-3,9.183169E-4,-2.531369E-3,1.6288726E-2,3.3071807E-3,-1.5420386E-2,1.8104356E-2,-7.1109473E-3,1.0973827E-3,-1.5929604E-2,1.7299369E-2,3.908501E-3,1.5570421E-2,3.7023555E-2,3.318666E-3,1.8937562E-2,3.7919678E-2,6.1964584E-3,-2.0825788E-3,5.9070415E-3],"split_indices":[6,6,9,8,0,8,4,7,8,6,0,7,7,3,3,7,9,3,7,8,4,7,9,7,8,0,9,8,8,8,3,0,0,0,0,0,0,0,0,0,0,0,0,0,0,0,0,0,0,0,0,0,0,0,0,0,0,0,0,0,0,0,0],"split_type":[0,0,0,0,0,0,0,0,0,0,0,0,0,0,0,0,0,0,0,0,0,0,0,0,0,0,0,0,0,0,0,0,0,0,0,0,0,0,0,0,0,0,0,0,0,0,0,0,0,0,0,0,0,0,0,0,0,0,0,0,0,0,0],"sum_hessian":[9.6019794E5,4.1623962E5,5.439583E5,2.5392973E5,1.6230989E5,1.9245772E5,3.515006E5,3.3184523E4,2.2074522E5,1.2500053E5,3.7309355E4,1.22047875E5,7.040985E4,7.886388E4,2.7263672E5,2.6203957E4,6.9805654E3,1.8496105E5,3.5784168E4,6.0967965E4,6.4032566E4,3.2212342E4,5.097015E3,8.36328E4,3.841508E4,2.8646418E4,4.176343E4,3.5971254E4,4.2892625E4,9.980985E4,1.7282686E5,3.967074E3,2.2236883E4,4.128904E3,2.8516616E3,7.139783E4,1.1356322E5,3.124614E4,4.5380283E3,5.891092E4,2.0570405E3,5.97697E4,4.2628677E3,1.3081396E4,1.9130945E4,1.1515009E3,3.9455142E3,1.7033264E4,6.659953E4,1.5172251E4,2.3242826E4,2.0974262E4,7.6721562E3,2.1557781E4,2.0205648E4,2.0313371E4,1.5657884E4,2.409577E4,1.8796855E4,2.8542913E3,9.695556E4,1.2511867E5,4.7708188E4],"tree_param":{"num_deleted":"0","num_feature":"10","num_nodes":"63","size_leaf_vector":"0"}},{"base_weights":[5.1564607E-4,-7.6056602E-3,6.9305236E-3,2.5990682E-2,-1.3542108E-2,1.1481229E-2,-1.6234005E-2,3.739791E-2,-1.7988171E-2,-3.948974E-2,-7.569421E-3,2.001943E-2,2.6608193E-3,-5.5485982E-3,-2.8814737E-2,5.6857567E-2,8.560004E-3,-3.410677E-2,5.8243778E-2,-7.488364E-2,-1.5062161E-3,2.7204684E-3,-2.6057351E-2,1.826145E-2,7.866778E-2,-6.2031875E-4,2.7795982E-2,-7.0862067E-3,1.93002E-1,-1.314699E-1,-2.534653E-2,5.306098E-2,2.8228498E-1,-6.8414037E-4,7.861019E-2,-6.732626E-2,-9.50738E-3,1.3354215E-1,-1.4603344E-2,-3.80144E-2,-1.1726074E-1,6.592104E-2,-6.8658185E-3,-3.6521E-2,6.9198865E-3,2.3204295E-2,-3.2675676E-2,2.9467562E-2,8.455926E-3,1.2791212E-1,4.7812525E-2,-3.1795113E-3,3.932396E-2,9.350389E-2,1.6475065E-2,1.5507297E-3,-3.0484175E-2,3.0990595E-1,-0E0,-1.8598652E-1,1.0117384E-1,4.318621E-3,-3.5584133E-2],"categories":[],"categories_nodes":[],"categories_segments":[],"categories_sizes":[],"default_left":[1,1,1,1,1,1,1,1,1,1,1,1,1,1,1,1,1,1,1,1,1,1,1,1,1,1,1,1,1,1,1,0,0,0,0,0,0,0,0,0,0,0,0,0,0,0,0,0,0,0,0,0,0,0,0,0,0,0,0,0,0,0,0],"id":22,"left_children":[1,3,5,7,9,11,13,15,17,19,21,23,25,27,29,31,33,35,37,39,41,43,45,47,49,51,53,55,57,59,61,-1,-1,-1,-1,-1,-1,-1,-1,-1,-1,-1,-1,-1,-1,-1,-1,-1,-1,-1,-1,-1,-1,-1,-1,-1,-1,-1,-1,-1,-1,-1,-1],"loss_changes":[5.0014458E1,8.435904E1,5.6558548E1,3.1927963E1,5.5515198E1,3.3677635E1,1.16324215E1,2.7959106E1,1.5799973E1,8.9877884E1,5.581543E1,2.2947311E1,1.8383211E1,1.3568385E1,1.3429005E1,2.3831367E1,1.3669672E1,8.371497E0,1.2743908E1,5.334732E1,1.1411279E1,3.0795961E1,3.4239555E1,2.4098824E1,8.959751E0,1.9772943E1,1.8527596E1,9.748179E0,6.578367E0,1.6467016E1,1.1983501E1,0E0,0E0,0E0,0E0,0E0,0E0,0E0,0E0,0E0,0E0,0E0,0E0,0E0,0E0,0E0,0E0,0E0,0E0,0E0,0E0,0E0,0E0,0E0,0E0,0E0,0E0,0E0,0E0,0E0,0E0,0E0,0E0],"parents":[2147483647,0,0,1,1,2,2,3,3,4,4,5,5,6,6,7,7,8,8,9,9,10,10,11,11,12,12,13,13,14,14,15,15,16,16,17,17,18,18,19,19,20,20,21,21,22,22,23,23,24,24,25,25,26,26,27,27,28,28,29,29,30,30],"right_children":[2,4,6,8,10,12,14,16,18,20,22,24,26,28,30,32,34,36,38,40,42,44,46,48,50,52,54,56,58,60,62,-1,-1,-1,-1,-1,-1,-1,-1,-1,-1,-1,-1,-1,-1,-1,-1,-1,-1,-1,-1,-1,-1,-1,-1,-1,-1,-1,-1,-1,-1,-1,-1],"split_conditions":[1.25E1,1.5E0,2.15E1,2.45E1,4.5E0,1.5E0,2.25E1,1.5E0,5.5E0,5E-1,5E-1,6.5E0,2.75E1,1.65E1,1.5E0,1.15E1,7.5E0,5E-1,3.5E0,1.65E1,2.5E0,3.5E0,5.5E0,5E-1,1.5E0,9.5E0,5E-1,2.25E1,4.5E0,5.5E0,5E-1,1.5918294E-2,8.46855E-2,-2.0524212E-4,2.3583058E-2,-2.019788E-2,-2.8522143E-3,4.0062647E-2,-4.3810033E-3,-1.1404321E-2,-3.517822E-2,1.9776313E-2,-2.0597456E-3,-1.09563E-2,2.075966E-3,6.961289E-3,-9.802703E-3,8.840269E-3,2.5367779E-3,3.8373638E-2,1.4343758E-2,-9.538534E-4,1.1797189E-2,2.805117E-2,4.9425196E-3,4.6521894E-4,-9.145253E-3,9.297179E-2,-0E0,-5.5795956E-2,3.0352153E-2,1.2955863E-3,-1.067524E-2],"split_indices":[8,8,8,5,8,2,8,4,0,3,0,0,5,4,5,0,3,4,2,5,5,5,8,0,4,4,4,5,0,3,3,0,0,0,0,0,0,0,0,0,0,0,0,0,0,0,0,0,0,0,0,0,0,0,0,0,0,0,0,0,0,0,0],"split_type":[0,0,0,0,0,0,0,0,0,0,0,0,0,0,0,0,0,0,0,0,0,0,0,0,0,0,0,0,0,0,0,0,0,0,0,0,0,0,0,0,0,0,0,0,0,0,0,0,0,0,0,0,0,0,0,0,0,0,0,0,0,0,0],"sum_hessian":[9.6009156E5,4.233139E5,5.367777E5,6.3427367E4,3.5988653E5,4.4884028E5,8.79374E4,5.046339E4,1.2963976E4,6.7165875E4,2.9272066E5,2.2775119E5,2.210891E5,4.778769E4,4.014971E4,3.0016637E4,2.0446754E4,1.0761293E4,2.2026829E3,3.4692684E4,3.2473193E4,1.8786395E5,1.048567E5,2.2121536E5,6.535824E3,1.9536797E5,2.5721129E4,4.7448902E4,3.3878696E2,1.2590956E3,3.8890613E4,2.9544688E4,4.7195023E2,1.799458E4,2.4521726E3,4.4825923E3,6.2787007E3,1.1198344E3,1.0828486E3,1.8622383E4,1.60703E4,2.3147427E3,3.0158451E4,1.80334E4,1.6983055E5,1.2320318E4,9.253639E4,1.0297213E5,1.1824323E5,2.447796E3,4.0880286E3,1.8373486E5,1.1633109E4,3.7077627E3,2.2013365E4,3.448519E4,1.2963713E4,1.9928131E2,1.3950565E2,1.0393752E3,2.197203E2,9.840237E3,2.9050377E4],"tree_param":{"num_deleted":"0","num_feature":"10","num_nodes":"63","size_leaf_vector":"0"}},{"base_weights":[3.6919946E-4,-5.902947E-3,1.1677338E-2,-3.5495352E-2,-3.0787503E-3,4.4483524E-2,4.048591E-3,-1.6391369E-2,-5.5109173E-2,-1.7865743E-2,2.4517737E-3,6.13316E-2,7.547256E-3,7.764053E-3,-2.1610837E-2,-3.185605E-2,3.4974187E-3,-5.3990436E-1,-5.304405E-2,-2.735631E-2,-1.3406799E-3,2.254084E-2,-2.421285E-3,3.4410425E-2,8.001436E-2,-4.0115632E-2,3.1982105E-2,6.2764524E-3,5.889925E-2,-9.4123766E-2,1.7439693E-2,-2.2896284E-2,-1.1123745E-1,-1.0251084E-1,1.6146027E-2,-6.096441E-1,-0E0,-6.289252E-2,-0E0,-2.8070154E-2,2.058396E-1,-6.982122E-3,4.567865E-2,3.808805E-2,-7.488948E-6,-3.810179E-2,2.019725E-3,8.3202375E-3,1.3952886E-1,1.1825063E-1,3.540801E-2,-8.375799E-2,-1.6639051E-3,4.149501E-2,-4.849403E-2,1.5076529E-2,-2.756637E-3,5.0722465E-2,1.9791144E-1,-8.275457E-2,-2.657934E-1,3.6620338E-2,-1.8777754E-2],"categories":[],"categories_nodes":[],"categories_segments":[],"categories_sizes":[],"default_left":[1,1,1,1,1,1,1,1,1,1,1,1,1,1,1,1,1,1,1,1,1,1,1,1,1,1,1,1,1,1,1,0,0,0,0,0,0,0,0,0,0,0,0,0,0,0,0,0,0,0,0,0,0,0,0,0,0,0,0,0,0,0,0],"id":23,"left_children":[1,3,5,7,9,11,13,15,17,19,21,23,25,27,29,31,33,35,37,39,41,43,45,47,49,51,53,55,57,59,61,-1,-1,-1,-1,-1,-1,-1,-1,-1,-1,-1,-1,-1,-1,-1,-1,-1,-1,-1,-1,-1,-1,-1,-1,-1,-1,-1,-1,-1,-1,-1,-1],"loss_changes":[6.812357E1,5.1370903E1,8.5532104E1,1.9690903E1,4.6176586E1,3.9786766E1,2.6454626E1,8.55216E0,2.3046677E1,2.394529E1,4.024005E1,2.1610413E1,2.3624235E1,1.8146633E1,9.9564415E1,1.0292852E1,1.5330259E1,5.0394154E0,1.3657333E1,1.5243546E1,1.471563E1,2.8340248E1,5.2438457E1,4.920832E1,4.3469574E1,1.0960639E1,1.030736E1,1.8867748E1,6.32057E0,2.2076317E1,1.587347E1,0E0,0E0,0E0,0E0,0E0,0E0,0E0,0E0,0E0,0E0,0E0,0E0,0E0,0E0,0E0,0E0,0E0,0E0,0E0,0E0,0E0,0E0,0E0,0E0,0E0,0E0,0E0,0E0,0E0,0E0,0E0,0E0],"parents":[2147483647,0,0,1,1,2,2,3,3,4,4,5,5,6,6,7,7,8,8,9,9,10,10,11,11,12,12,13,13,14,14,15,15,16,16,17,17,18,18,19,19,20,20,21,21,22,22,23,23,24,24,25,25,26,26,27,27,28,28,29,29,30,30],"right_children":[2,4,6,8,10,12,14,16,18,20,22,24,26,28,30,32,34,36,38,40,42,44,46,48,50,52,54,56,58,60,62,-1,-1,-1,-1,-1,-1,-1,-1,-1,-1,-1,-1,-1,-1,-1,-1,-1,-1,-1,-1,-1,-1,-1,-1,-1,-1,-1,-1,-1,-1,-1,-1],"split_conditions":[1.8321307E0,1.5E0,5E-1,5E-1,1.5E0,4.5E0,5.5E0,5E-1,2.1637192E-1,8.5E0,3.5E0,1.5E0,2.1028478E0,1.15E1,2.355929E0,1.5E0,4.848851E-1,3.5E0,3.5E0,1.35E1,4.5E0,4.5E0,4.5E0,3.0451903E0,2.355929E0,5.5E0,4.5E0,2.5E0,2.25E1,6.5E0,4.5E0,-6.8688854E-3,-3.3371236E-2,-3.0753253E-2,4.8438082E-3,-1.8289325E-1,-0E0,-1.8867757E-2,-0E0,-8.421047E-3,6.1751883E-2,-2.0946367E-3,1.3703595E-2,1.1426415E-2,-2.2466845E-6,-1.1430537E-2,6.0591754E-4,2.4960714E-3,4.185866E-2,3.547519E-2,1.0622403E-2,-2.5127398E-2,-4.9917155E-4,1.2448504E-2,-1.45482095E-2,4.522959E-3,-8.2699116E-4,1.521674E-2,5.9373435E-2,-2.4826372E-2,-7.973803E-2,1.0986102E-2,-5.6333262E-3],"split_indices":[9,6,4,2,7,7,7,4,9,6,6,7,9,2,9,3,9,2,1,4,4,7,6,9,9,6,3,2,2,4,4,0,0,0,0,0,0,0,0,0,0,0,0,0,0,0,0,0,0,0,0,0,0,0,0,0,0,0,0,0,0,0,0],"split_type":[0,0,0,0,0,0,0,0,0,0,0,0,0,0,0,0,0,0,0,0,0,0,0,0,0,0,0,0,0,0,0,0,0,0,0,0,0,0,0,0,0,0,0,0,0,0,0,0,0,0,0,0,0,0,0,0,0,0,0,0,0,0,0],"sum_hessian":[9.6003425E5,6.1720875E5,3.428255E5,5.360174E4,5.63607E5,6.4543008E4,2.782825E5,2.7296766E4,2.6304973E4,1.5368658E5,4.0992044E5,4.422204E4,2.0320969E4,2.4327198E5,3.501052E4,1.5511565E4,1.1785201E4,9.917661E1,2.6205795E4,9.740951E4,5.6277066E4,8.0243516E4,3.296769E5,1.8238404E4,2.5983635E4,6.810534E3,1.3510435E4,2.365005E5,6.7714775E3,1.230353E4,2.270699E4,1.4001763E4,1.5098024E3,1.2091718E3,1.0576029E4,9.112727E1,8.049343E0,2.2093637E4,4.112158E3,9.7136625E4,2.7288342E2,5.035342E4,5.9236465E3,4.763922E4,3.26043E4,3.6627848E4,2.9304906E5,1.4654569E4,3.5838342E3,1.3923529E4,1.2060105E4,3.1224114E3,3.6881228E3,1.2143773E4,1.3666611E3,1.2010342E5,1.16397086E5,6.433958E3,3.3751987E2,1.1570752E4,7.32778E2,1.4944356E4,7.7626343E3],"tree_param":{"num_deleted":"0","num_feature":"10","num_nodes":"63","size_leaf_vector":"0"}},{"base_weights":[2.5346252E-4,-3.8406446E-3,1.25167165E-2,-7.4827373E-3,2.4741855E-2,2.5674883E-2,-3.7376467E-2,-1.9614479E-2,-3.2307368E-3,1.3760327E-2,6.157818E-2,1.1390153E-3,7.197848E-2,5.0361197E-2,-2.4197386E-1,-1.2587696E-1,-7.668455E-3,1.1015839E-2,-1.1294942E-2,2.118404E-2,-2.244866E-2,1.14392035E-1,3.4377813E-2,-9.128977E-3,1.470537E-2,1.0341591E-1,5.7125952E-2,-0E0,6.5096654E-2,-3.0669186E-1,-1.8112154E-1,-1.673482E-1,-8.766522E-2,1.3314305E-2,-1.5568533E-2,2.663539E-2,-5.0304695E-3,-4.4432573E-2,-4.409898E-3,8.661886E-3,4.979767E-2,2.625664E-2,-1.5351976E-1,9.285925E-2,2.33662E-1,4.386293E-2,-3.0678961E-2,5.616232E-3,-2.1196911E-2,5.851553E-2,1.5074183E-3,1.23884946E-1,6.286564E-2,8.5326195E-2,5.1039778E-2,-2.917741E-2,4.3994665E-2,8.3901554E-2,4.1690048E-2,-2.2160102E-1,-3.4111527E-1,-2.1909072E-1,-9.2996076E-2],"categories":[],"categories_nodes":[],"categories_segments":[],"categories_sizes":[],"default_left":[1,1,1,1,1,1,1,1,1,1,1,1,1,1,1,1,1,1,1,1,1,1,1,1,1,1,1,1,1,1,1,0,0,0,0,0,0,0,0,0,0,0,0,0,0,0,0,0,0,0,0,0,0,0,0,0,0,0,0,0,0,0,0],"id":24,"left_children":[1,3,5,7,9,11,13,15,17,19,21,23,25,27,29,31,33,35,37,39,41,43,45,47,49,51,53,55,57,59,61,-1,-1,-1,-1,-1,-1,-1,-1,-1,-1,-1,-1,-1,-1,-1,-1,-1,-1,-1,-1,-1,-1,-1,-1,-1,-1,-1,-1,-1,-1,-1,-1],"loss_changes":[4.8245308E1,7.479134E1,1.5789775E2,3.279702E1,3.240499E1,2.1600755E2,9.0087274E2,2.091012E2,5.4335583E1,1.6825426E1,2.5779045E1,1.7385746E1,2.9880737E1,2.612902E1,5.6583862E1,2.4981506E1,2.4652695E1,4.2901245E1,6.868811E1,1.8342205E1,6.791476E1,1.4171356E1,7.659298E0,1.2663666E1,3.083746E1,1.6415573E1,6.9476776E0,1.0133623E1,1.1257065E1,1.8078674E1,2.4394745E1,0E0,0E0,0E0,0E0,0E0,0E0,0E0,0E0,0E0,0E0,0E0,0E0,0E0,0E0,0E0,0E0,0E0,0E0,0E0,0E0,0E0,0E0,0E0,0E0,0E0,0E0,0E0,0E0,0E0,0E0,0E0,0E0],"parents":[2147483647,0,0,1,1,2,2,3,3,4,4,5,5,6,6,7,7,8,8,9,9,10,10,11,11,12,12,13,13,14,14,15,15,16,16,17,17,18,18,19,19,20,20,21,21,22,22,23,23,24,24,25,25,26,26,27,27,28,28,29,29,30,30],"right_children":[2,4,6,8,10,12,14,16,18,20,22,24,26,28,30,32,34,36,38,40,42,44,46,48,50,52,54,56,58,60,62,-1,-1,-1,-1,-1,-1,-1,-1,-1,-1,-1,-1,-1,-1,-1,-1,-1,-1,-1,-1,-1,-1,-1,-1,-1,-1,-1,-1,-1,-1,-1,-1],"split_conditions":[9.5E0,2.75E1,2.45E1,7.5E0,7.5E0,1.15E1,1.15E1,1.5E0,3.5E0,3.05E1,5E-1,1.74002E0,5E-1,9.626453E-1,5E-1,5E-1,3.5E0,1.75E1,4.5E0,4.5E0,4.5E0,3.05E1,5.5E0,5E-1,5E-1,1.65E1,4.5E0,2.85E1,2.5E0,8.720287E-1,2.355929E0,-5.0204463E-2,-2.6299568E-2,3.9942916E-3,-4.67056E-3,7.990617E-3,-1.509141E-3,-1.3329772E-2,-1.3229694E-3,2.5985658E-3,1.4939302E-2,7.876992E-3,-4.605593E-2,2.7857777E-2,7.00986E-2,1.315888E-2,-9.203689E-3,1.6848696E-3,-6.359074E-3,1.755466E-2,4.5222553E-4,3.7165485E-2,1.8859692E-2,2.559786E-2,1.5311934E-2,-8.753223E-3,1.31984E-2,2.5170468E-2,1.2507015E-2,-6.648031E-2,-1.0233458E-1,-6.572722E-2,-2.7898824E-2],"split_indices":[6,5,5,5,6,6,6,6,6,5,3,9,3,9,1,3,6,5,6,7,7,5,7,3,1,5,5,5,4,9,9,0,0,0,0,0,0,0,0,0,0,0,0,0,0,0,0,0,0,0,0,0,0,0,0,0,0,0,0,0,0,0,0],"split_type":[0,0,0,0,0,0,0,0,0,0,0,0,0,0,0,0,0,0,0,0,0,0,0,0,0,0,0,0,0,0,0,0,0,0,0,0,0,0,0,0,0,0,0,0,0,0,0,0,0,0,0,0,0,0,0,0,0,0,0,0,0,0,0],"sum_hessian":[9.5997406E5,7.1936506E5,2.4060898E5,6.382322E5,8.113285E4,1.9048398E5,5.0125004E4,1.6530095E5,4.7293125E5,6.2616504E4,1.8516348E4,1.245865E5,6.589749E4,3.5062848E4,1.5062157E4,1.6657643E4,1.4864331E5,1.706938E5,3.0223747E5,5.2089266E4,1.052724E4,6.224697E3,1.229165E4,7.068325E4,5.390325E4,2.1023041E4,4.487445E4,7.9115864E3,2.715126E4,7.2534766E3,7.8086807E3,7.917481E3,8.740162E3,4.0466535E4,1.0817677E5,8.667047E4,8.4023336E4,5.1855125E4,2.5038233E5,3.6367367E4,1.5721896E4,